{"learner":{"attributes":{"scikit_learn":"{\"_estimator_type\": \"classifier\"}"},"feature_names":[],"feature_types":[],"gradient_booster":{"model":{"gbtree_model_param":{"num_parallel_tree":"1","num_trees":"100"},"iteration_indptr":[0,1,2,3,4,5,6,7,8,9,10,11,12,13,14,15,16,17,18,19,20,21,22,23,24,25,26,27,28,29,30,31,32,33,34,35,36,37,38,39,40,41,42,43,44,45,46,47,48,49,50,51,52,53,54,55,56,57,58,59,60,61,62,63,64,65,66,67,68,69,70,71,72,73,74,75,76,77,78,79,80,81,82,83,84,85,86,87,88,89,90,91,92,93,94,95,96,97,98,99,100],"tree_info":[0,0,0,0,0,0,0,0,0,0,0,0,0,0,0,0,0,0,0,0,0,0,0,0,0,0,0,0,0,0,0,0,0,0,0,0,0,0,0,0,0,0,0,0,0,0,0,0,0,0,0,0,0,0,0,0,0,0,0,0,0,0,0,0,0,0,0,0,0,0,0,0,0,0,0,0,0,0,0,0,0,0,0,0,0,0,0,0,0,0,0,0,0,0,0,0,0,0,0,0],"trees":[{"base_weights":[-1.1177843E0,-1.1180294E0,-5.824596E-2,-1.1202911E0,-9.58111E-1,-1.1205379E0,-1.277506E-1,2.9365367E-1,-1.0350697E0,-3.362351E-1,-4.935747E-1,-3.346781E-1,-2.4890321E-1,-1.905582E-1,-2.9207202E-2,4.0181062E-1,-2.7819896E-1],"categories":[],"categories_nodes":[],"categories_segments":[],"categories_sizes":[],"default_left":[0,0,0,0,0,0,0,0,0,0,0,0,0,0,0,0,0],"id":0,"left_children":[1,3,-1,5,7,9,-1,-1,11,-1,13,-1,15,-1,-1,-1,-1],"loss_changes":[6.850586E-1,3.6767578E-1,0E0,1.953125E-1,1.0324875E1,5.126953E-2,0E0,0E0,3.5564804E0,0E0,1.2464762E-1,0E0,8.692445E0,0E0,0E0,0E0,0E0],"parents":[2147483647,0,0,1,1,3,3,4,4,5,5,8,8,10,10,12,12],"right_children":[2,4,-1,6,8,10,-1,-1,12,-1,14,-1,16,-1,-1,-1,-1],"split_conditions":[2.518E3,9.61E2,-5.824596E-2,2.797E3,2E0,3.33E3,-1.277506E-1,2.9365367E-1,1.34E3,-3.362351E-1,1E0,-3.346781E-1,1E0,-1.905582E-1,-2.9207202E-2,4.0181062E-1,-2.7819896E-1],"split_indices":[4836,4818,0,4671,10396,5088,0,0,10359,0,9989,0,4728,0,0,0,0],"split_type":[0,0,0,0,0,0,0,0,0,0,0,0,0,0,0,0,0],"sum_hessian":[3.9842761E3,3.9830085E3,1.2673641E0,3.9215415E3,6.146716E1,3.919535E3,2.00666E0,1.9010463E0,5.9566116E1,3.9172114E3,2.3235009E0,5.365175E1,5.914366E0,1.2673641E0,1.0561368E0,1.4785914E0,4.4357743E0],"tree_param":{"num_deleted":"0","num_feature":"10398","num_nodes":"17","size_leaf_vector":"1"}},{"base_weights":[-1.0733823E0,-9.3466973E-1,-1.0776137E0,2.3583505E0,-3.258145E-1,-1.0779309E0,-4.9910348E-2,9.0360886E-1,1.0946677E0,-1.0794222E0,-7.6452273E-1,4.0712297E-1,-2.8748669E-2,-1.0797373E0,-1.10310994E-1,-3.1174916E-1,8.611695E-1,-3.2401413E-1,-4.4325238E-1,5.656893E-1,-1.6889986E-1,-1.767099E-1,-2.066559E-2],"categories":[],"categories_nodes":[],"categories_segments":[],"categories_sizes":[],"default_left":[0,0,0,0,0,0,0,0,0,0,0,0,0,0,0,0,0,0,0,0,0,0,0],"id":1,"left_children":[1,3,5,7,-1,9,-1,11,-1,13,15,-1,-1,17,-1,-1,19,-1,21,-1,-1,-1,-1],"loss_changes":[7.8637695E-1,5.1415794E1,6.760254E-1,5.381178E0,0E0,5.5688477E-1,0E0,1.7172763E0,0E0,2.631836E-1,8.67972E0,0E0,0E0,1.003418E-1,0E0,0E0,5.5359707E0,0E0,1.2999219E-1,0E0,0E0,0E0,0E0],"parents":[2147483647,0,0,1,1,2,2,3,3,5,5,7,7,9,9,10,10,13,13,16,16,18,18],"right_children":[2,4,6,8,-1,10,-1,12,-1,14,16,-1,-1,18,-1,-1,20,-1,22,-1,-1,-1,-1],"split_conditions":[2E0,2E0,2.518E3,5E0,-3.258145E-1,9.61E2,-4.9910348E-2,1.8E1,1.0946677E0,2.797E3,7.01E2,4.0712297E-1,-2.8748669E-2,3.33E3,-1.10310994E-1,-3.1174916E-1,2E0,-3.2401413E-1,1.2E1,5.656893E-1,-1.6889986E-1,-1.767099E-1,-2.066559E-2],"split_indices":[5197,10396,4836,9990,0,4818,0,4922,0,4671,10367,0,0,5088,0,0,10292,0,10080,0,0,0,0],"split_type":[0,0,0,0,0,0,0,0,0,0,0,0,0,0,0,0,0,0,0,0,0,0,0],"sum_hessian":[3.0550215E3,9.7004486E1,2.958017E3,3.622527E0,9.338196E1,2.956805E3,1.2120601E0,2.5021725E0,1.1203547E0,2.9403691E3,1.6435923E1,1.4750628E0,1.0271095E0,2.938551E3,1.8179637E0,1.4369205E1,2.0667179E0,2.9364258E3,2.125359E0,1.0135843E0,1.0531336E0,1.1169877E0,1.0083714E0],"tree_param":{"num_deleted":"0","num_feature":"10398","num_nodes":"23","size_leaf_vector":"1"}},{"base_weights":[-1.0393668E0,-8.7463284E-1,-1.0445505E0,1.3388668E0,-3.1668758E-1,-1.0464038E0,-6.851889E-1,-4.3626998E-2,1.6863661E0,-1.0468112E0,-4.2753875E-2,-2.9778394E-1,6.338607E-1,6.3163507E-1,5.565877E-2,-1.0472134E0,-9.502062E-2,3.8805997E-1,-6.748986E-2,-1.0476043E0,-1.1962258E-1,-3.1440806E-1,-1.4475727E-1],"categories":[],"categories_nodes":[],"categories_segments":[],"categories_sizes":[],"default_left":[0,0,0,0,0,0,0,0,0,0,0,0,0,0,0,0,0,0,0,0,0,0,0],"id":2,"left_children":[1,3,5,7,-1,9,11,-1,13,15,-1,-1,17,-1,-1,19,-1,-1,-1,21,-1,-1,-1],"loss_changes":[1.0739746E0,3.2322865E1,7.824707E-1,3.480587E0,0E0,6.750488E-1,6.4877224E0,0E0,2.8561916E0,3.2495117E-1,0E0,0E0,2.183845E0,0E0,0E0,1.4868164E-1,0E0,0E0,0E0,2.734375E-2,0E0,0E0,0E0],"parents":[2147483647,0,0,1,1,2,2,3,3,5,5,6,6,8,8,9,9,12,12,15,15,19,19],"right_children":[2,4,6,8,-1,10,12,-1,14,16,-1,-1,18,-1,-1,20,-1,-1,-1,22,-1,-1,-1],"split_conditions":[2E0,2E0,9.61E2,1.6E1,-3.1668758E-1,2.518E3,7.01E2,-4.3626998E-2,6.4E1,2.797E3,-4.2753875E-2,-2.9778394E-1,2E0,6.3163507E-1,5.565877E-2,3.33E3,-9.502062E-2,3.8805997E-1,-6.748986E-2,2.289E3,-1.1962258E-1,-3.1440806E-1,-1.4475727E-1],"split_indices":[5197,10396,4818,10153,0,4836,10367,0,4937,4671,0,0,10290,0,0,5088,0,0,0,4939,0,0,0],"split_type":[0,0,0,0,0,0,0,0,0,0,0,0,0,0,0,0,0,0,0,0,0,0,0],"sum_hessian":[2.326486E3,7.615296E1,2.2503333E3,5.2726126E0,7.088035E1,2.2368857E3,1.3447424E1,1.1105561E0,4.1620564E0,2.2357197E3,1.1659572E0,1.1106392E1,2.3410327E0,2.938639E0,1.2234176E0,2.2340547E3,1.665155E0,1.0377584E0,1.3032743E0,2.2320938E3,1.9608552E0,2.2295723E3,2.5215144E0],"tree_param":{"num_deleted":"0","num_feature":"10398","num_nodes":"23","size_leaf_vector":"1"}},{"base_weights":[-1.0112798E0,-8.2273E-1,-1.0174195E0,8.3505327E-1,-3.096297E-1,-1.0197718E0,-6.068326E-1,-4.0889424E-3,1.0838137E0,-1.0202972E0,-3.661527E-2,-2.8613457E-1,6.2046194E-1,5.5131704E-1,2.3412874E-1,-1.0208176E0,-8.167781E-2,-6.827306E-2,3.8287583E-1,-8.644491E-2,1.8889701E-1,-1.0213737E0,-1.07168265E-1,-3.065651E-1,-1.0327626E-1],"categories":[],"categories_nodes":[],"categories_segments":[],"categories_sizes":[],"default_left":[0,0,0,0,0,0,0,0,0,0,0,0,0,0,0,0,0,0,0,0,0,0,0,0,0],"id":3,"left_children":[1,3,5,7,-1,9,11,-1,13,15,-1,-1,17,-1,19,21,-1,-1,-1,-1,-1,23,-1,-1,-1],"loss_changes":[1.2073975E0,2.2007195E1,1.0290527E0,1.5736995E0,0E0,6.751709E-1,5.781983E0,0E0,3.2356586E0,3.8134766E-1,0E0,0E0,2.1213682E0,0E0,9.739606E-1,2.5976562E-1,0E0,0E0,0E0,0E0,0E0,2.3168945E-1,0E0,0E0,0E0],"parents":[2147483647,0,0,1,1,2,2,3,3,5,5,6,6,8,8,9,9,12,12,14,14,15,15,21,21],"right_children":[2,4,6,8,-1,10,12,-1,14,16,-1,-1,18,-1,20,22,-1,-1,-1,-1,-1,24,-1,-1,-1],"split_conditions":[2E0,2E0,1.915E3,9.1E1,-3.096297E-1,2.518E3,4.37E2,-4.0889424E-3,1E1,2.797E3,-3.661527E-2,-2.8613457E-1,7.5E1,5.5131704E-1,1.4E1,3.399E3,-8.167781E-2,-6.827306E-2,3.8287583E-1,-8.644491E-2,1.8889701E-1,3.33E3,-1.07168265E-1,-3.065651E-1,-1.0327626E-1],"split_indices":[5197,10396,4923,10126,0,4836,10280,0,4958,4671,0,0,10085,0,9989,5171,0,0,0,0,0,5088,0,0,0],"split_type":[0,0,0,0,0,0,0,0,0,0,0,0,0,0,0,0,0,0,0,0,0,0,0,0,0],"sum_hessian":[1.7651362E3,5.9922054E1,1.7052142E3,6.3841257E0,5.353793E1,1.6940251E3,1.1189033E1,1.6613599E0,4.722766E0,1.6928977E3,1.1274271E0,8.896812E0,2.29222E0,1.8862776E0,2.8364882E0,1.6913566E3,1.5412161E0,1.2843416E0,1.0078784E0,1.3393767E0,1.4971114E0,1.6894015E3,1.9549994E0,1.6876216E3,1.7799358E0],"tree_param":{"num_deleted":"0","num_feature":"10398","num_nodes":"25","size_leaf_vector":"1"}},{"base_weights":[-9.8579246E-1,-9.932601E-1,-7.686887E-1,-7.6980114E-1,-1.0010998E0,-9.910254E-1,6.157518E-1,6.272144E-1,-3.037756E-1,-1.0018063E0,-3.135341E-2,-3.0418503E-1,-6.3816523E-3,-2.4084811E-1,1.9545393E0,-5.665289E-2,7.990721E-1,-1.0032982E0,-4.5971867E-1,-1.7807934E-1,1.0217705E0,1.0335414E0,-4.356836E-3,-1.0047927E0,-4.890963E-1,-2.3783708E-1,1.3988422E-1,3.672925E-2,3.915641E-1,-3.0165148E-1,-7.008814E-2,1.3988422E-1,-2.4241664E-1],"categories":[],"categories_nodes":[],"categories_segments":[],"categories_sizes":[],"default_left":[0,0,0,0,0,0,0,0,0,0,0,0,0,0,0,0,0,0,0,0,0,0,0,0,0,0,0,0,0,0,0,0,0],"id":4,"left_children":[1,3,5,7,9,11,13,15,-1,17,-1,-1,-1,-1,19,-1,21,23,25,-1,-1,27,-1,29,31,-1,-1,-1,-1,-1,-1,-1,-1],"loss_changes":[1.4060059E0,1.4893799E0,1.5667589E1,1.6934774E1,6.826172E-1,9.239731E-1,1.5595882E1,1.2353773E0,0E0,5.432129E-1,0E0,0E0,0E0,0E0,1.7150856E1,0E0,1.2699771E0,4.597168E-1,1.9902532E0,0E0,0E0,1.1077127E0,0E0,4.423828E-1,2.0636554E0,0E0,0E0,0E0,0E0,0E0,0E0,0E0,0E0],"parents":[2147483647,0,0,1,1,2,2,3,3,4,4,5,5,6,6,7,7,9,9,14,14,16,16,17,17,18,18,21,21,23,23,24,24],"right_children":[2,4,6,8,10,12,14,16,-1,18,-1,-1,-1,-1,20,-1,22,24,26,-1,-1,28,-1,30,32,-1,-1,-1,-1,-1,-1,-1,-1],"split_conditions":[1.34E3,2E0,1.34E3,2E0,2.518E3,2.025E3,1.53E2,1.6E1,-3.037756E-1,2.679E3,-3.135341E-2,-3.0418503E-1,-6.3816523E-3,-2.4084811E-1,1.5E1,-5.665289E-2,1.07E2,3.342E3,1.79E2,-1.7807934E-1,1.0217705E0,1E0,-4.356836E-3,2.797E3,1E0,-2.3783708E-1,1.3988422E-1,3.672925E-2,3.915641E-1,-3.0165148E-1,-7.008814E-2,1.3988422E-1,-2.4241664E-1],"split_indices":[5160,5197,10359,10396,4836,10284,10233,10153,0,5196,0,0,0,0,4845,0,4933,10368,10249,0,0,9989,0,4671,5049,0,0,0,0,0,0,0,0],"split_type":[0,0,0,0,0,0,0,0,0,0,0,0,0,0,0,0,0,0,0,0,0,0,0,0,0,0,0,0,0,0,0,0,0],"sum_hessian":[1.3370652E3,1.2891477E3,4.791741E1,4.705706E1,1.2420907E3,4.153172E1,6.3856926E0,6.7326994E0,4.032436E1,1.2409956E3,1.0951431E0,4.052807E1,1.0036505E0,3.2948272E0,3.0908654E0,1.1540275E0,5.578672E0,1.2367411E3,4.254422E0,1.3360996E0,1.7547659E0,4.120771E0,1.4579009E0,1.2322054E3,4.5357065E0,3.2347674E0,1.019655E0,1.2796956E0,2.8410754E0,1.230765E3,1.4403853E0,1.019655E0,3.5160515E0],"tree_param":{"num_deleted":"0","num_feature":"10398","num_nodes":"33","size_leaf_vector":"1"}},{"base_weights":[-9.6181506E-1,-9.817314E-1,-8.4915906E-1,-9.859017E-1,-5.635343E-1,-9.8336256E-1,-4.045202E-1,-9.869298E-1,-2.6845338E-2,-2.7744764E-1,4.4236755E-1,-1.007349E0,-8.414422E-2,-8.026638E-1,4.009417E-1,-9.87997E-1,-4.5878895E-2,-3.9387783E-1,-3.0596852E-1,2.895308E-1,-2.1363933E-1,-8.7290376E-1,1.4416327E-1,-2.4976988E-1,1.0437617E0,-9.891098E-1,-5.4350484E-2,1.14064395E-1,-2.3361047E-1,-9.5086944E-1,3.623644E-2,-2.5377342E-1,1.473395E0,-6.862384E-2,-2.9706872E-1,-2.974496E-1,-6.771976E-3,-1.6371064E-1,4.5888342E-2,7.530025E-1,1.7474237E-1],"categories":[],"categories_nodes":[],"categories_segments":[],"categories_sizes":[],"default_left":[0,0,0,0,0,0,0,0,0,0,0,0,0,0,0,0,0,0,0,0,0,0,0,0,0,0,0,0,0,0,0,0,0,0,0,0,0,0,0,0,0],"id":5,"left_children":[1,3,5,7,9,11,13,15,-1,-1,-1,17,19,21,23,25,-1,27,-1,-1,-1,29,-1,-1,31,33,-1,-1,-1,35,-1,37,39,-1,-1,-1,-1,-1,-1,-1,-1],"loss_changes":[1.440918E0,9.3566895E-1,9.132385E0,6.906738E-1,9.299377E0,2.54628E0,1.2741201E1,6.003418E-1,0E0,0E0,0E0,5.1205444E-1,3.494542E0,2.78541E0,1.1555643E1,5.777588E-1,0E0,1.4901605E0,0E0,0E0,0E0,2.0704765E0,0E0,0E0,5.5605097E0,4.8962402E-1,0E0,0E0,0E0,8.646469E-1,0E0,4.595626E-1,5.1288214E0,0E0,0E0,0E0,0E0,0E0,0E0,0E0,0E0],"parents":[2147483647,0,0,1,1,2,2,3,3,4,4,5,5,6,6,7,7,11,11,12,12,13,13,14,14,15,15,17,17,21,21,24,24,25,25,29,29,31,31,32,32],"right_children":[2,4,6,8,10,12,14,16,-1,-1,-1,18,20,22,24,26,-1,28,-1,-1,-1,30,-1,-1,32,34,-1,-1,-1,36,-1,38,40,-1,-1,-1,-1,-1,-1,-1,-1],"split_conditions":[2.62E2,2.791E3,3.51E2,2.009E3,4.05E2,1.246E3,2.5E1,3.33E3,-2.6845338E-2,-2.7744764E-1,4.4236755E-1,2E0,2.7E1,2.372E3,9.1E1,2.754E3,-4.5878895E-2,9E0,-3.0596852E-1,2.895308E-1,-2.1363933E-1,5.89E2,1.4416327E-1,-2.4976988E-1,2.7E1,1E0,-5.4350484E-2,1.14064395E-1,-2.3361047E-1,1.025E3,3.623644E-2,2.11E2,2.5E1,-6.862384E-2,-2.9706872E-1,-2.974496E-1,-6.771976E-3,-1.6371064E-1,4.5888342E-2,7.530025E-1,1.7474237E-1],"split_indices":[5079,10368,10372,4836,5157,5165,4876,5088,0,0,0,10396,10314,5022,10368,4881,0,4946,0,0,0,10068,0,0,10224,10379,0,0,0,5041,0,4749,4838,0,0,0,0,0,0,0,0],"split_type":[0,0,0,0,0,0,0,0,0,0,0,0,0,0,0,0,0,0,0,0,0,0,0,0,0,0,0,0,0,0,0,0,0,0,0,0,0,0,0,0,0],"sum_hessian":[1.01280304E3,8.540939E2,1.5870921E2,8.443168E2,9.77711E0,1.2098209E2,3.7727116E1,8.432487E2,1.0680263E0,8.768887E0,1.0082235E0,1.1772165E2,3.2604425E0,2.5249598E1,1.247752E1,8.4198663E2,1.2620984E0,3.0084941E0,1.1471315E2,1.019774E0,2.2406685E0,2.4242373E1,1.0072255E0,4.173606E0,8.303914E0,8.406013E2,1.3852973E0,1.002962E0,2.0055323E0,2.251864E1,1.7237316E0,2.1674192E0,6.1364946E0,1.5373442E0,8.3906396E2,2.1509155E1,1.0094855E0,1.0628824E0,1.1045369E0,1.9963545E0,4.14014E0],"tree_param":{"num_deleted":"0","num_feature":"10398","num_nodes":"41","size_leaf_vector":"1"}},{"base_weights":[-9.3523747E-1,-6.4816743E-1,-9.4583935E-1,5.286091E-1,-2.9377812E-1,-9.7082835E-1,-7.8979504E-1,-2.9997844E-2,7.3692644E-1,-9.737204E-1,3.664091E-2,-9.599469E-1,-2.848383E-1,3.4408295E-1,1.7140898E-1,-9.7517896E-1,-4.2521E-2,-9.841318E-1,3.840106E-2,-7.86375E-1,4.1798466E-1,1.3087153E-1,-4.268903E-2,-9.7659415E-1,-3.921622E-2,-1.9462751E-1,-3.027602E-1,-8.951458E-1,1.1052511E-1,1.4960182E0,-2.5845605E-1,-5.612493E-2,-2.934216E-1,1.4270376E-1,-1.9014308E-1,-3.7865818E-3,-2.8619543E-1,6.655065E-1,-9.062637E-2],"categories":[],"categories_nodes":[],"categories_segments":[],"categories_sizes":[],"default_left":[0,0,0,0,0,0,0,0,0,0,0,0,0,0,0,0,0,0,0,0,0,0,0,0,0,0,0,0,0,0,0,0,0,0,0,0,0,0,0],"id":6,"left_children":[1,3,5,7,-1,9,11,-1,13,15,-1,17,19,-1,21,23,-1,25,-1,27,29,-1,-1,31,-1,33,-1,35,-1,37,-1,-1,-1,-1,-1,-1,-1,-1,-1],"loss_changes":[1.7348633E0,1.2461106E1,2.1259155E0,1.0401309E0,0E0,2.1262207E0,8.985191E0,0E0,1.1164382E0,6.305542E-1,0E0,2.2356262E0,1.0403326E1,0E0,3.574831E-1,6.2786865E-1,0E0,1.3582306E0,0E0,2.4683914E0,1.8606766E1,0E0,0E0,5.5322266E-1,0E0,1.3778695E0,0E0,8.1110096E-1,0E0,9.995108E0,0E0,0E0,0E0,0E0,0E0,0E0,0E0,0E0,0E0],"parents":[2147483647,0,0,1,1,2,2,3,3,5,5,6,6,8,8,9,9,11,11,12,12,14,14,15,15,17,17,19,19,20,20,23,23,25,25,27,27,29,29],"right_children":[2,4,6,8,-1,10,12,-1,14,16,-1,18,20,-1,22,24,-1,26,-1,28,30,-1,-1,32,-1,34,-1,36,-1,38,-1,-1,-1,-1,-1,-1,-1,-1,-1],"split_conditions":[2E0,2E0,5.29E2,9.1E1,-2.9377812E-1,9.85E2,5.29E2,-2.9997844E-2,1E1,1.708E3,3.664091E-2,2.804E3,4.01E2,3.4408295E-1,4.3E1,3.33E3,-4.2521E-2,2E0,3.840106E-2,6.11E2,1.3E1,1.3087153E-1,-4.268903E-2,1E0,-3.921622E-2,7E0,-3.027602E-1,2E0,1.1052511E-1,2E0,-2.5845605E-1,-5.612493E-2,-2.934216E-1,1.4270376E-1,-1.9014308E-1,-3.7865818E-3,-2.8619543E-1,6.655065E-1,-9.062637E-2],"split_indices":[5197,10396,5157,10126,0,4922,10356,0,4958,4916,0,10280,5151,0,10120,5088,0,5139,0,10320,10316,0,0,10379,0,10219,0,10385,0,10007,0,0,0,0,0,0,0,0,0],"split_type":[0,0,0,0,0,0,0,0,0,0,0,0,0,0,0,0,0,0,0,0,0,0,0,0,0,0,0,0,0,0,0,0,0,0,0,0,0,0,0],"sum_hessian":[7.704681E2,2.9653942E1,7.4081415E2,6.3803225E0,2.327362E1,6.340546E2,1.06759476E2,1.7175571E0,4.6627655E0,6.324902E2,1.5644815E0,7.917827E1,2.7581205E1,2.1069992E0,2.555766E0,6.312114E2,1.2787304E0,7.7549774E1,1.6284922E0,1.602607E1,1.1555136E1,1.1740441E0,1.381722E0,6.2999915E2,1.2122586E0,2.6563394E0,7.489344E1,1.4851992E1,1.1740787E0,6.17947E0,5.3756657E0,1.4154112E0,6.2858374E2,1.0185963E0,1.6377431E0,1.0042208E0,1.3847771E1,4.241752E0,1.937718E0],"tree_param":{"num_deleted":"0","num_feature":"10398","num_nodes":"39","size_leaf_vector":"1"}},{"base_weights":[-9.0693694E-1,-9.334369E-1,-7.418896E-1,-5.893288E-1,-9.493599E-1,-9.3511474E-1,-2.6255098E-1,4.228193E-1,-2.8832948E-1,-9.530962E-1,2.926036E-2,-9.662479E-1,3.0425081E-2,-7.99167E-1,2.7299216E-1,-5.160649E-2,5.5177623E-1,-9.568617E-1,-3.179045E-1,-1.6503406E-1,-2.9968446E-1,-2.8135064E-1,1.2624691E-1,-1.5871271E-1,1.7254006E0,7.416176E-1,8.477479E-3,-9.5877403E-1,-3.6296546E-2,-2.1293639E-1,1.4682692E-1,1.4687967E-1,-1.8517634E-1,-2.650077E-1,8.524346E-1,-1.5925887E-1,9.160271E-1,2.0557735E-2,2.9350322E-1,-2.8819087E-1,-3.3504467E-2,3.802713E-1,-2.5543543E-3],"categories":[],"categories_nodes":[],"categories_segments":[],"categories_sizes":[],"default_left":[0,0,0,0,0,0,0,0,0,0,0,0,0,0,0,0,0,0,0,0,0,0,0,0,0,0,0,0,0,0,0,0,0,0,0,0,0,0,0,0,0,0,0],"id":7,"left_children":[1,3,5,7,9,11,13,15,-1,17,-1,19,-1,21,23,-1,25,27,29,31,-1,-1,-1,33,35,37,-1,39,-1,-1,-1,-1,-1,-1,41,-1,-1,-1,-1,-1,-1,-1,-1],"loss_changes":[1.8852844E0,2.2018127E0,7.7578735E0,9.785448E0,1.9706421E0,2.0727844E0,7.7521076E0,6.618211E-1,0E0,8.4002686E-1,0E0,1.3941727E0,0E0,2.6530418E0,8.968257E0,0E0,6.062921E-1,6.4349365E-1,1.7131665E0,1.3476038E0,0E0,0E0,0E0,9.256263E0,1.1393423E1,6.646557E-1,0E0,6.4019775E-1,0E0,0E0,0E0,0E0,0E0,0E0,1.9242556E0,0E0,0E0,0E0,0E0,0E0,0E0,0E0,0E0],"parents":[2147483647,0,0,1,1,2,2,3,3,4,4,5,5,6,6,7,7,9,9,11,11,13,13,14,14,16,16,17,17,18,18,19,19,23,23,24,24,25,25,27,27,34,34],"right_children":[2,4,6,8,10,12,14,16,-1,18,-1,20,-1,22,24,-1,26,28,30,32,-1,-1,-1,34,36,38,-1,40,-1,-1,-1,-1,-1,-1,42,-1,-1,-1,-1,-1,-1,-1,-1],"split_conditions":[5.29E2,2E0,5.29E2,2E0,9.85E2,2.804E3,4.8E1,1.6E1,-2.8832948E-1,2.593E3,2.926036E-2,2E0,3.0425081E-2,4.73E2,2.75E2,-5.160649E-2,2.6E1,1.708E3,1.16E2,4.2E1,-2.9968446E-1,-2.8135064E-1,1.2624691E-1,3.51E2,1.47E2,1E0,8.477479E-3,3.33E3,-3.6296546E-2,-2.1293639E-1,1.4682692E-1,1.4687967E-1,-1.8517634E-1,-2.650077E-1,1.8E1,-1.5925887E-1,9.160271E-1,2.0557735E-2,2.9350322E-1,-2.8819087E-1,-3.3504467E-2,3.802713E-1,-2.5543543E-3],"split_indices":[5157,5197,10356,10396,4922,10280,10344,10153,0,5098,0,5139,0,5049,10397,0,4932,4916,10245,10371,0,0,0,5173,5132,9989,0,5088,0,0,0,0,0,0,5015,0,0,0,0,0,0,0,0],"split_type":[0,0,0,0,0,0,0,0,0,0,0,0,0,0,0,0,0,0,0,0,0,0,0,0,0,0,0,0,0,0,0,0,0,0,0,0,0,0,0,0,0,0,0],"sum_hessian":[5.883711E2,5.0296036E2,8.541073E1,2.3925417E1,4.7903494E2,6.0194866E1,2.5215862E1,6.390329E0,1.7535088E1,4.7742065E2,1.6142912E0,5.850541E1,1.6894574E0,1.2349434E1,1.2866429E1,1.0790479E0,5.3112807E0,4.7410376E2,3.3169203E0,2.531288E0,5.597412E1,1.1296688E1,1.0527459E0,1.0604992E1,2.2614377E0,3.5920906E0,1.7191904E0,4.7287485E2,1.2289101E0,2.3143392E0,1.0025812E0,1.0004231E0,1.530865E0,6.251318E0,4.353674E0,1.0602951E0,1.2011424E0,1.2701385E0,2.3219519E0,4.7170383E2,1.171001E0,2.6186883E0,1.7349856E0],"tree_param":{"num_deleted":"0","num_feature":"10398","num_nodes":"43","size_leaf_vector":"1"}},{"base_weights":[-8.737831E-1,-9.1131413E-1,-7.0594823E-1,-9.2239165E-1,-3.7788647E-1,-8.892481E-1,-3.6749017E-1,-9.2739475E-1,-1.0748809E-1,-2.6716635E-1,5.646118E-1,-9.549982E-1,-4.74888E-2,-6.314163E-2,-2.7764568E-1,-9.3245E-1,-1.22955635E-1,1.4766327E-1,-1.735383E-1,-9.7356176E-1,-3.8874045E-3,3.717755E-1,-2.2684471E-1,-5.2348185E-1,4.4858328E-1,-5.108609E-3,-9.350377E-1,1.4714414E-1,-1.765125E-1,-2.978476E-1,-2.6046615E-3,-2.6712027E-1,6.565714E-1,5.222596E-1,5.150111E-2,-2.8129658E-1,-6.5424773E-3,4.1964903E-1,-1.5643325E-1,-2.3487169E-1,1.9242814E-1],"categories":[],"categories_nodes":[],"categories_segments":[],"categories_sizes":[],"default_left":[0,0,0,0,0,0,0,0,0,0,0,0,0,0,0,0,0,0,0,0,0,0,0,0,0,0,0,0,0,0,0,0,0,0,0,0,0,0,0,0,0],"id":8,"left_children":[1,3,5,7,9,11,13,15,17,-1,-1,19,21,23,-1,25,27,-1,-1,29,-1,-1,-1,31,33,-1,35,-1,-1,-1,-1,-1,37,-1,39,-1,-1,-1,-1,-1,-1],"loss_changes":[2.2097168E0,1.8184814E0,5.0838776E0,1.3622131E0,1.2282732E1,3.046814E0,5.434296E0,1.3341064E0,1.2221831E0,0E0,0E0,8.9271545E-1,5.587713E0,5.4177003E0,0E0,8.223877E-1,1.252644E0,0E0,0E0,9.3478394E-1,0E0,0E0,0E0,5.7993927E0,5.5332675E0,0E0,8.230591E-1,0E0,0E0,0E0,0E0,0E0,3.730494E0,0E0,5.135466E0,0E0,0E0,0E0,0E0,0E0,0E0],"parents":[2147483647,0,0,1,1,2,2,3,3,4,4,5,5,6,6,7,7,8,8,11,11,12,12,13,13,15,15,16,16,19,19,23,23,24,24,26,26,32,32,34,34],"right_children":[2,4,6,8,10,12,14,16,18,-1,-1,20,22,24,-1,26,28,-1,-1,30,-1,-1,-1,32,34,-1,36,-1,-1,-1,-1,-1,38,-1,40,-1,-1,-1,-1,-1,-1],"split_conditions":[1.7E2,1.992E3,1.42E2,1.804E3,1.651E3,9.34E2,8.8E1,2.679E3,2E0,-2.6716635E-1,5.646118E-1,2.278E3,1.01E2,1.17E2,-2.7764568E-1,1E0,2E0,1.4766327E-1,-1.735383E-1,1.229E3,-3.8874045E-3,3.717755E-1,-2.2684471E-1,9.4E1,3.6E1,-5.108609E-3,2.735E3,1.4714414E-1,-1.765125E-1,-2.978476E-1,-2.6046615E-3,-2.6712027E-1,7E0,5.222596E-1,2.78E2,-2.8129658E-1,-6.5424773E-3,4.1964903E-1,-1.5643325E-1,-2.3487169E-1,1.9242814E-1],"split_indices":[5068,5137,10270,5098,10333,10268,5118,5196,10157,0,0,10323,5179,10378,0,10379,10173,0,0,5115,0,0,0,10015,10380,0,10026,0,0,0,0,0,5061,0,5181,0,0,0,0,0,0],"split_type":[0,0,0,0,0,0,0,0,0,0,0,0,0,0,0,0,0,0,0,0,0,0,0,0,0,0,0,0,0,0,0,0,0,0,0,0,0,0,0,0,0],"sum_hessian":[4.5194153E2,3.657281E2,8.621345E1,3.5757327E2,8.1548E0,5.4869976E1,3.1343466E1,3.5525418E2,2.3191183E0,7.1408277E0,1.0139726E0,5.0769802E1,4.1001744E0,2.1001652E1,1.0341816E1,3.528775E2,2.376674E0,1.0003102E0,1.3188081E0,4.9755867E1,1.013937E0,1.1902566E0,2.9099178E0,1.1043818E1,9.957832E0,1.0160693E0,3.5186142E2,1.0020703E0,1.3746037E0,4.875355E1,1.0023133E0,8.611626E0,2.4321928E0,1.5451344E0,8.412698E0,3.5082907E2,1.0323367E0,1.3770672E0,1.0551257E0,3.3488593E0,5.063839E0],"tree_param":{"num_deleted":"0","num_feature":"10398","num_nodes":"41","size_leaf_vector":"1"}},{"base_weights":[-8.332334E-1,-8.7477195E-1,-6.0913914E-1,-8.860923E-1,-2.0966978E-1,-8.8944155E-1,2.2024207E-2,-9.0731525E-1,-4.816445E-1,3.2446665E-1,-2.4110772E-1,-9.332481E-1,7.081618E-2,1.3478687E0,-3.194869E-1,-5.322809E-1,-9.282042E-1,-2.7796587E-1,3.5957065E-1,-2.950533E-1,6.939832E-2,7.766038E-1,-1.7670211E-1,1.9840688E-1,-2.643427E-1,3.7220806E-1,-8.1055653E-1,-9.3504816E-1,-9.645458E-2,3.532816E-1,-1.9398569E-1,4.983139E-1,-1.9470282E-1,-2.8137237E-1,1.3428234E-1,-2.8266576E-1,-3.7557263E-2,-1.7255917E-1,1.4467058E-1,1.1318041E-1,-2.294023E-1,-6.3335444E-3,1.9974747E-1],"categories":[],"categories_nodes":[],"categories_segments":[],"categories_sizes":[],"default_left":[0,0,0,0,0,0,0,0,0,0,0,0,0,0,0,0,0,0,0,0,0,0,0,0,0,0,0,0,0,0,0,0,0,0,0,0,0,0,0,0,0,0,0],"id":9,"left_children":[1,3,5,7,9,11,13,15,17,-1,-1,19,-1,21,23,25,27,-1,29,-1,-1,-1,-1,31,-1,-1,33,35,37,-1,39,41,-1,-1,-1,-1,-1,-1,-1,-1,-1,-1,-1],"loss_changes":[2.7385254E0,2.02919E0,1.0324862E1,2.0432587E0,5.6503468E0,2.2102108E0,8.98348E0,1.6479034E0,6.5227537E0,0E0,0E0,2.513298E0,0E0,1.1283424E1,4.779033E0,9.279472E0,1.3764496E0,0E0,3.1452992E0,0E0,0E0,0E0,0E0,2.6237803E0,0E0,0E0,2.8392153E0,1.365448E0,1.1688343E0,0E0,1.8208288E0,6.4496624E-1,0E0,0E0,0E0,0E0,0E0,0E0,0E0,0E0,0E0,0E0,0E0],"parents":[2147483647,0,0,1,1,2,2,3,3,4,4,5,5,6,6,7,7,8,8,11,11,13,13,14,14,15,15,16,16,18,18,23,23,26,26,27,27,28,28,30,30,31,31],"right_children":[2,4,6,8,10,12,14,16,18,-1,-1,20,-1,22,24,26,28,-1,30,-1,-1,-1,-1,32,-1,-1,34,36,38,-1,40,42,-1,-1,-1,-1,-1,-1,-1,-1,-1,-1,-1],"split_conditions":[4.79E2,1.876E3,4.79E2,1.34E3,8E0,2.767E3,1.1E1,3E0,5.21E2,3.2446665E-1,-2.4110772E-1,1.101E3,7.081618E-2,6.8E1,1.3E1,3E0,9.85E2,-2.7796587E-1,7E0,-2.950533E-1,6.939832E-2,7.766038E-1,-1.7670211E-1,5.42E2,-2.643427E-1,3.7220806E-1,8.21E2,2.314E3,4.8E1,3.532816E-1,2E0,8E0,-1.9470282E-1,-2.8137237E-1,1.3428234E-1,-2.8266576E-1,-3.7557263E-2,-1.7255917E-1,1.4467058E-1,1.1318041E-1,-2.294023E-1,-6.3335444E-3,1.9974747E-1],"split_indices":[5134,5165,10333,5160,10346,10245,10264,10380,10281,0,0,10228,0,5131,5197,5181,4922,0,10185,0,0,0,0,10333,0,0,5125,10202,10260,0,10290,10232,0,0,0,0,0,0,0,0,0,0,0],"split_type":[0,0,0,0,0,0,0,0,0,0,0,0,0,0,0,0,0,0,0,0,0,0,0,0,0,0,0,0,0,0,0,0,0,0,0,0,0,0,0,0,0,0,0],"sum_hessian":[3.504366E2,2.931873E2,5.7249306E1,2.8795392E2,5.2333813E0,3.93601E1,1.7889206E1,2.7241586E2,1.5538054E1,1.3903815E0,3.843E0,3.8049934E1,1.3101685E0,3.060538E0,1.4828669E1,1.5769823E1,2.5664603E2,1.0096627E1,5.441427E0,3.6624695E1,1.4252375E0,1.6603519E0,1.4001861E0,8.05137E0,6.777298E0,1.6701713E0,1.4099652E1,2.544283E2,2.21774E0,1.7411077E0,3.7003195E0,6.2510405E0,1.8003297E0,1.3034812E1,1.0648402E0,2.5203319E2,2.3951042E0,1.2169819E0,1.000758E0,2.0186229E0,1.6816968E0,1.7374486E0,4.513592E0],"tree_param":{"num_deleted":"0","num_feature":"10398","num_nodes":"43","size_leaf_vector":"1"}},{"base_weights":[-7.895137E-1,-8.490193E-1,-6.0110724E-1,-8.71574E-1,-3.2149976E-1,-8.409298E-1,-1.06369756E-1,-8.806751E-1,4.59143E-2,-7.679855E-1,3.4488994E-1,-8.802934E-1,1.2098735E-1,-2.6720402E-1,4.0666357E-1,-8.942088E-1,-2.087309E-1,-2.615464E-1,-1.5540393E-3,-9.2087966E-1,2.5381014E-2,5.016353E-1,-6.1094606E-1,-4.7099215E-1,-9.1989994E-1,-6.5100765E-1,2.1356721E-1,-9.424915E-1,-6.0047857E-3,1.2930651E0,-2.8641498E-1,-2.7800283E-1,4.138342E-1,2.09267E-1,-2.2105707E-1,-2.7904192E-1,-4.533927E-3,-2.3201755E-1,-4.2333763E-2,-2.9719383E-1,-1.2946293E-1,-4.8950903E-2,6.8193513E-1,-2.1876174E-1,7.173847E-2,3.6255562E-1,-1.8617226E-1],"categories":[],"categories_nodes":[],"categories_segments":[],"categories_sizes":[],"default_left":[0,0,0,0,0,0,0,0,0,0,0,0,0,0,0,0,0,0,0,0,0,0,0,0,0,0,0,0,0,0,0,0,0,0,0,0,0,0,0,0,0,0,0,0,0,0,0],"id":10,"left_children":[1,3,5,7,9,11,13,15,-1,17,-1,19,-1,21,-1,23,25,-1,-1,27,-1,29,31,33,35,37,-1,39,-1,41,43,-1,45,-1,-1,-1,-1,-1,-1,-1,-1,-1,-1,-1,-1,-1,-1],"loss_changes":[2.5738068E0,2.1784058E0,8.1513405E0,1.9772797E0,7.4889617E0,2.6390228E0,5.963103E0,1.5957031E0,0E0,6.540985E-1,0E0,1.8604736E0,0E0,6.1987095E0,0E0,1.652359E0,2.5701714E0,0E0,0E0,8.332138E-1,0E0,5.0089827E0,5.5143404E0,4.561172E0,1.6516724E0,1.4156032E-1,0E0,6.235504E-1,0E0,5.9256487E0,1.2321004E0,0E0,4.388492E0,0E0,0E0,0E0,0E0,0E0,0E0,0E0,0E0,0E0,0E0,0E0,0E0,0E0,0E0],"parents":[2147483647,0,0,1,1,2,2,3,3,4,4,5,5,6,6,7,7,9,9,11,11,13,13,15,15,16,16,19,19,21,21,22,22,23,23,24,24,25,25,27,27,29,29,30,30,32,32],"right_children":[2,4,6,8,10,12,14,16,-1,18,-1,20,-1,22,-1,24,26,-1,-1,28,-1,30,32,34,36,38,-1,40,-1,42,44,-1,46,-1,-1,-1,-1,-1,-1,-1,-1,-1,-1,-1,-1,-1,-1],"split_conditions":[1.19E2,1.665E3,7.2E1,1.607E3,1.251E3,1.246E3,6.16E2,2.03E3,4.59143E-2,5.75E2,3.4488994E-1,1.885E3,1.2098735E-1,5E0,4.0666357E-1,3E0,1.86E2,-2.615464E-1,-1.5540393E-3,8.79E2,2.5381014E-2,2E1,3.3E2,3E0,1.879E3,7.7E1,2.1356721E-1,4.38E2,-6.0047857E-3,2.13E2,3.1E1,-2.7800283E-1,3E0,2.09267E-1,-2.2105707E-1,-2.7904192E-1,-4.533927E-3,-2.3201755E-1,-4.2333763E-2,-2.9719383E-1,-1.2946293E-1,-4.8950903E-2,6.8193513E-1,-2.1876174E-1,7.173847E-2,3.6255562E-1,-1.8617226E-1],"split_indices":[4998,5167,10219,10098,10379,5165,5047,5022,0,10234,0,10302,0,10304,0,10380,10259,0,0,10044,0,5069,5110,5181,5111,10208,0,10238,0,10206,10051,0,10288,0,0,0,0,0,0,0,0,0,0,0,0,0,0],"split_type":[0,0,0,0,0,0,0,0,0,0,0,0,0,0,0,0,0,0,0,0,0,0,0,0,0,0,0,0,0,0,0,0,0,0,0,0,0,0,0,0,0,0,0,0,0,0,0],"sum_hessian":[2.7409576E2,2.0564069E2,6.8455086E1,1.9658334E2,9.057337E0,4.563426E1,2.2820826E1,1.9499184E2,1.5915073E0,7.315163E0,1.7421736E0,4.451832E1,1.1159399E0,2.129523E1,1.5255959E0,1.9081776E2,4.1740737E0,6.312913E0,1.0022504E0,4.276512E1,1.7531992E0,6.4374375E0,1.4857793E1,1.2026993E1,1.7879077E2,3.0173612E0,1.1567125E0,4.171809E1,1.0470303E0,2.892097E0,3.5453403E0,1.1431525E1,3.4262674E0,1.9282173E0,1.0098776E1,1.7676227E2,2.0284986E0,2.016579E0,1.0007824E0,3.7267002E1,4.451087E0,1.4987102E0,1.3933867E0,1.7138371E0,1.8315033E0,1.8424703E0,1.583797E0],"tree_param":{"num_deleted":"0","num_feature":"10398","num_nodes":"47","size_leaf_vector":"1"}},{"base_weights":[-7.3771876E-1,-8.000263E-1,-4.9255478E-1,-8.5699654E-1,-5.3115743E-1,-7.536879E-1,-1.2168974E-1,-8.752933E-1,3.0111454E-2,-7.9340704E-2,-8.5034627E-1,-8.84821E-1,3.5601947E-1,1.5143135E-1,-2.503383E-1,-9.0623176E-1,-2.8847808E-1,-1.9705443E-1,2.9300466E-1,-4.6474466E-1,9.245292E-1,-1.721396E-1,-2.836323E-1,-2.885189E-1,-8.692517E-2,-1.8491077E-1,4.2253816E-1,-5.080818E-1,5.5430496E-1,2.1979338E-3,-9.202312E-1,-7.1308446E-1,2.9085237E-1,-2.6564685E-1,5.45278E-1,1.7426006E0,-1.7132899E-1,-1.2714487E-1,6.511475E-2,1.4885691E-1,-1.689542E-1,-2.4873908E-1,5.5325557E-2,1.1071997E0,-2.6122507E-1,-2.802976E-1,-5.7051923E-2,-2.502924E-1,-1.0764629E-3,-1.8616614E-1,4.4824567E-1,6.3124233E-1,1.62263E-1,5.619908E-1,1.3420164E-2,8.901391E-2,-2.1435735E-1],"categories":[],"categories_nodes":[],"categories_segments":[],"categories_sizes":[],"default_left":[0,0,0,0,0,0,0,0,0,0,0,0,0,0,0,0,0,0,0,0,0,0,0,0,0,0,0,0,0,0,0,0,0,0,0,0,0,0,0,0,0,0,0,0,0,0,0,0,0,0,0,0,0,0,0,0,0],"id":11,"left_children":[1,3,5,7,9,11,13,15,17,19,21,23,25,27,-1,29,31,-1,-1,33,35,37,-1,-1,39,-1,-1,41,43,-1,45,47,-1,-1,49,51,-1,-1,-1,-1,-1,-1,-1,53,55,-1,-1,-1,-1,-1,-1,-1,-1,-1,-1,-1,-1],"loss_changes":[2.9337387E0,2.1809845E0,4.4356375E0,2.3049393E0,4.651367E0,4.278968E0,4.118783E0,2.2363205E0,3.1148713E0,6.09731E0,1.0672674E0,1.4289436E0,4.543948E0,4.446046E0,0E0,1.6721802E0,5.155334E0,0E0,0E0,5.263936E0,6.3767195E0,4.4146487E-1,0E0,0E0,1.186539E0,0E0,0E0,1.5903186E0,4.8920426E0,0E0,1.1420898E0,5.8396006E-1,0E0,0E0,5.2717595E0,2.0445347E-1,0E0,0E0,0E0,0E0,0E0,0E0,0E0,5.0233707E0,1.4597607E0,0E0,0E0,0E0,0E0,0E0,0E0,0E0,0E0,0E0,0E0,0E0,0E0],"parents":[2147483647,0,0,1,1,2,2,3,3,4,4,5,5,6,6,7,7,8,8,9,9,10,10,11,11,12,12,13,13,15,15,16,16,19,19,20,20,21,21,24,24,27,27,28,28,30,30,31,31,34,34,35,35,43,43,44,44],"right_children":[2,4,6,8,10,12,14,16,18,20,22,24,26,28,-1,30,32,-1,-1,34,36,38,-1,-1,40,-1,-1,42,44,-1,46,48,-1,-1,50,52,-1,-1,-1,-1,-1,-1,-1,54,56,-1,-1,-1,-1,-1,-1,-1,-1,-1,-1,-1,-1],"split_conditions":[1.7E2,4.44E2,1.42E2,1.228E3,1.4E1,9.34E2,8.8E1,1.161E3,2.9E1,3.19E2,2E0,1.019E3,9.3E1,6.1E1,-2.503383E-1,2E0,3.57E2,-1.9705443E-1,2.9300466E-1,2.6E1,4.7E1,1.78E2,-2.836323E-1,-2.885189E-1,3.7E1,-1.8491077E-1,4.2253816E-1,8.6E1,1.2E1,2.1979338E-3,1.828E3,2.46E2,2.9085237E-1,-2.6564685E-1,1.81E2,8.3E1,-1.7132899E-1,-1.2714487E-1,6.511475E-2,1.4885691E-1,-1.689542E-1,-2.4873908E-1,5.5325557E-2,2.31E2,1.3E1,-2.802976E-1,-5.7051923E-2,-2.502924E-1,-1.0764629E-3,-1.8616614E-1,4.4824567E-1,6.3124233E-1,1.62263E-1,5.619908E-1,1.3420164E-2,8.901391E-2,-2.1435735E-1],"split_indices":[5068,5134,10270,4946,10233,10268,5118,5072,10152,10340,10396,10321,5002,10397,0,10378,10293,0,0,10228,5101,4931,0,0,5019,0,0,10098,4896,0,4950,10255,0,0,5010,5169,0,0,0,0,0,0,0,10394,10150,0,0,0,0,0,0,0,0,0,0,0,0],"split_type":[0,0,0,0,0,0,0,0,0,0,0,0,0,0,0,0,0,0,0,0,0,0,0,0,0,0,0,0,0,0,0,0,0,0,0,0,0,0,0,0,0,0,0,0,0,0,0,0,0,0,0,0,0,0,0,0,0],"sum_hessian":[2.1685124E2,1.7110284E2,4.5748394E1,1.3938199E2,3.1720856E1,2.6240042E1,1.9508352E1,1.3657834E2,2.803641E0,1.3649022E1,1.8071833E1,2.3648209E1,2.5918329E0,1.4673339E1,4.835014E0,1.2922115E2,7.357207E0,1.8019668E0,1.0016744E0,1.0250655E1,3.3983665E0,2.5679111E0,1.55039215E1,2.138189E1,2.266318E0,1.5625131E0,1.0293198E0,5.4653287E0,9.20801E0,1.9575025E0,1.2726363E2,5.824444E0,1.5327631E0,7.3232923E0,2.9273634E0,2.090036E0,1.3083307E0,1.5054247E0,1.0624863E0,1.0000396E0,1.2662785E0,3.5993454E0,1.8659834E0,5.2744875E0,3.9335225E0,1.2457879E2,2.6848485E0,4.824262E0,1.0001818E0,1.4687713E0,1.4585919E0,1.0294027E0,1.0606331E0,2.6212444E0,2.653243E0,1.9180951E0,2.0154274E0],"tree_param":{"num_deleted":"0","num_feature":"10398","num_nodes":"57","size_leaf_vector":"1"}},{"base_weights":[-6.8092793E-1,-7.508609E-1,-4.3267423E-1,-5.796341E-1,-8.883975E-1,-6.6780174E-1,2.7010967E-3,-6.538827E-1,5.0001913E-1,-9.4399977E-1,-3.2975305E-2,1.2032885E-1,-7.632279E-1,3.8159755E-1,-2.4417272E-1,-7.3434335E-1,2.986757E-1,-2.058715E-1,5.3743523E-1,-9.754038E-1,-1.2337409E-1,2.92575E-1,-2.2997741E-1,-2.8625587E-1,-1.3252005E-1,1.5164678E0,-5.8490247E-2,-7.9666984E-1,3.8371703E-1,-2.0933117E-1,3.721941E-1,-2.9682752E-1,-2.0010201E-2,1.9311394E-1,-1.9518071E-1,-5.461174E-1,4.3174088E-1,7.4396896E-1,-2.394727E-2,-2.3473886E-1,5.3268933E-1,-2.5748256E-1,-5.4320134E-2,-1.8539292E-1,4.4796035E-1,-2.2469033E-1,2.2565166E-2,2.1330623E-1,-1.5804397E-2,3.5784334E-1,-2.9699422E-2],"categories":[],"categories_nodes":[],"categories_segments":[],"categories_sizes":[],"default_left":[0,0,0,0,0,0,0,0,0,0,0,0,0,0,0,0,0,0,0,0,0,0,0,0,0,0,0,0,0,0,0,0,0,0,0,0,0,0,0,0,0,0,0,0,0,0,0,0,0,0,0],"id":12,"left_children":[1,3,5,7,9,11,13,15,17,19,21,-1,23,25,-1,27,29,-1,-1,31,33,-1,-1,-1,35,37,39,41,43,-1,-1,-1,-1,-1,-1,45,47,-1,-1,-1,49,-1,-1,-1,-1,-1,-1,-1,-1,-1,-1],"loss_changes":[2.7287827E0,2.684845E0,4.2007713E0,5.4093266E0,3.46344E0,3.02324E0,5.069298E0,4.799116E0,8.34725E0,1.6565933E0,4.830761E0,0E0,2.8603687E0,5.675618E0,0E0,4.1655006E0,5.901476E0,0E0,0E0,7.782974E-1,1.9096107E0,0E0,0E0,0E0,1.85186E0,5.062237E0,4.278806E0,1.846611E0,4.9232035E0,0E0,0E0,0E0,0E0,0E0,0E0,6.1561143E-1,5.0926536E-1,0E0,0E0,0E0,2.437477E0,0E0,0E0,0E0,0E0,0E0,0E0,0E0,0E0,0E0,0E0],"parents":[2147483647,0,0,1,1,2,2,3,3,4,4,5,5,6,6,7,7,8,8,9,9,10,10,12,12,13,13,15,15,16,16,19,19,20,20,24,24,25,25,26,26,27,27,28,28,35,35,36,36,40,40],"right_children":[2,4,6,8,10,12,14,16,18,20,22,-1,24,26,-1,28,30,-1,-1,32,34,-1,-1,-1,36,38,40,42,44,-1,-1,-1,-1,-1,-1,46,48,-1,-1,-1,50,-1,-1,-1,-1,-1,-1,-1,-1,-1,-1],"split_conditions":[1.7E2,3E0,2.12E2,9.13E2,8.75E2,7E0,8.7E1,1.023E3,7E1,1.228E3,3E1,1.2032885E-1,3.76E2,2.5E1,-2.4417272E-1,1.6E2,2.26E2,-2.058715E-1,5.3743523E-1,9.9E2,5E0,2.92575E-1,-2.2997741E-1,-2.8625587E-1,1.98E2,2.2E1,1.14E2,2.73E2,8.3E1,-2.0933117E-1,3.721941E-1,-2.9682752E-1,-2.0010201E-2,1.9311394E-1,-1.9518071E-1,6.1E1,4E0,7.4396896E-1,-2.394727E-2,-2.3473886E-1,1E1,-2.5748256E-1,-5.4320134E-2,-1.8539292E-1,4.4796035E-1,-2.2469033E-1,2.2565166E-2,2.1330623E-1,-1.5804397E-2,3.5784334E-1,-2.9699422E-2],"split_indices":[5068,10173,10257,5072,4954,5171,5145,5197,10286,4946,10235,0,5134,10357,0,10217,10396,0,0,4921,10335,0,0,0,10210,5001,5069,10249,5027,0,0,0,0,0,0,10135,10230,0,0,0,10200,0,0,0,0,0,0,0,0,0,0],"split_type":[0,0,0,0,0,0,0,0,0,0,0,0,0,0,0,0,0,0,0,0,0,0,0,0,0,0,0,0,0,0,0,0,0,0,0,0,0,0,0,0,0,0,0,0,0,0,0,0,0,0,0],"sum_hessian":[1.7489046E2,1.3487238E2,4.0018078E1,6.2400696E1,7.247168E1,2.5638159E1,1.4379921E1,5.8754463E1,3.6462314E0,6.795131E1,4.5203695E0,1.838733E0,2.3799427E1,1.0186311E1,4.1936097E0,5.438939E1,4.3650775E0,2.1447613E0,1.5014702E0,6.526511E1,2.6861987E0,1.7651331E0,2.7552366E0,1.7874664E1,5.924761E0,2.162909E0,8.023402E0,5.1789806E1,2.599581E0,2.2471826E0,2.1178946E0,6.418589E1,1.0792203E0,1.0042027E0,1.681996E0,3.4373639E0,2.4873972E0,1.0036368E0,1.1592722E0,3.4611874E0,4.5622144E0,4.672017E1,5.0696383E0,1.5989662E0,1.0006148E0,2.436492E0,1.0008719E0,1.2810647E0,1.2063324E0,1.7965268E0,2.7656877E0],"tree_param":{"num_deleted":"0","num_feature":"10398","num_nodes":"51","size_leaf_vector":"1"}},{"base_weights":[-6.1965364E-1,-8.3337075E-1,-5.1315224E-1,-3.1810284E-1,-2.93007E-1,-6.956969E-1,-2.7800676E-1,-6.805095E-1,7.948297E-1,-9.25603E-3,-7.960287E-1,-6.529195E-1,-1.2643673E-2,-2.6467246E-1,1.42188E-1,-1.6585565E-1,5.565537E-1,1.0957215E0,-2.435704E-1,2.1388698E-1,-8.5128707E-1,2.0931211E-1,-8.849356E-1,1.3552965E0,-2.5293145E-1,5.9039825E-1,-1.5882342E-1,-1.6925839E-1,2.9779968E-1,-8.9226174E-1,1.307503E-1,-4.8996162E-1,4.2104375E-1,-2.7991515E-1,-3.3459045E-2,2.2913332E0,-1.6479625E-1,-2.6336208E-1,4.551666E-2,-2.803305E-1,8.567353E-2,-1.2728821E-2,-1.9158414E-1,1.4455143E-1,8.9131564E-1,2.297851E-1,-4.190824E-2],"categories":[],"categories_nodes":[],"categories_segments":[],"categories_sizes":[],"default_left":[0,0,0,0,0,0,0,0,0,0,0,0,0,0,0,0,0,0,0,0,0,0,0,0,0,0,0,0,0,0,0,0,0,0,0,0,0,0,0,0,0,0,0,0,0,0,0],"id":13,"left_children":[1,3,5,7,-1,9,11,13,15,17,19,21,23,-1,-1,-1,-1,25,-1,27,29,31,33,35,37,-1,-1,-1,-1,39,-1,41,-1,-1,-1,43,-1,-1,45,-1,-1,-1,-1,-1,-1,-1,-1],"loss_changes":[2.8477478E0,3.105362E0,4.040867E0,5.1991925E0,0E0,3.7714863E0,4.446477E0,2.5726867E0,5.7389655E0,7.992577E0,2.85293E0,3.8937755E0,9.29611E0,0E0,0E0,0E0,0E0,6.4219766E0,0E0,2.5488021E0,2.792591E0,4.6452565E0,4.4662762E-1,8.794603E0,4.518424E0,0E0,0E0,0E0,0E0,2.4772835E0,0E0,2.2106719E-1,0E0,0E0,0E0,2.2921534E0,0E0,0E0,2.402234E0,0E0,0E0,0E0,0E0,0E0,0E0,0E0,0E0],"parents":[2147483647,0,0,1,1,2,2,3,3,5,5,6,6,7,7,8,8,9,9,10,10,11,11,12,12,17,17,19,19,20,20,21,21,22,22,23,23,24,24,29,29,31,31,35,35,38,38],"right_children":[2,4,6,8,-1,10,12,14,16,18,20,22,24,-1,-1,-1,-1,26,-1,28,30,32,34,36,38,-1,-1,-1,-1,40,-1,42,-1,-1,-1,44,-1,-1,46,-1,-1,-1,-1,-1,-1,-1,-1],"split_conditions":[2.6E1,1.6E1,1.48E2,3.56E2,-2.93007E-1,4E0,5.2E1,5.18E2,8E1,1.7E1,2E0,2E1,2E1,-2.6467246E-1,1.42188E-1,-1.6585565E-1,5.565537E-1,2.9E1,-2.435704E-1,6.3E1,1.358E3,7.13E2,1.68E2,1.43E2,1.28E2,5.9039825E-1,-1.5882342E-1,-1.6925839E-1,2.9779968E-1,1.146E3,1.307503E-1,2.6E1,4.2104375E-1,-2.7991515E-1,-3.3459045E-2,2.6E1,-1.6479625E-1,-2.6336208E-1,2E0,-2.803305E-1,8.567353E-2,-1.2728821E-2,-1.9158414E-1,1.4455143E-1,8.9131564E-1,2.297851E-1,-4.190824E-2],"split_indices":[10392,5193,5157,10304,0,10357,10375,5069,5054,5141,10323,5176,10333,0,0,0,0,5055,0,5128,5014,10289,4716,5135,5180,0,0,0,0,5109,0,5045,0,0,0,10276,0,0,10223,0,0,0,0,0,0,0,0],"split_type":[0,0,0,0,0,0,0,0,0,0,0,0,0,0,0,0,0,0,0,0,0,0,0,0,0,0,0,0,0,0,0,0,0,0,0,0,0,0,0,0,0,0,0,0,0,0,0],"sum_hessian":[1.4290254E2,4.5257996E1,9.764454E1,1.0549489E1,3.4708508E1,5.3867966E1,4.3776573E1,8.251183E0,2.2983067E0,7.0087037E0,4.6859264E1,1.7537958E1,2.6238615E1,7.2245655E0,1.0266168E0,1.2227854E0,1.0755213E0,2.7953258E0,4.213378E0,2.2820113E0,4.457725E1,3.7393663E0,1.3798592E1,3.227036E0,2.301158E1,1.6817111E0,1.1136146E0,1.2793477E0,1.0026635E0,4.349926E1,1.0779928E0,2.7302852E0,1.0090811E0,1.2796105E1,1.0024858E0,2.0275445E0,1.1994914E0,6.810054E0,1.6201525E1,4.219509E1,1.3041669E0,1.0012746E0,1.7290106E0,1.0202885E0,1.007256E0,2.672084E0,1.3529441E1],"tree_param":{"num_deleted":"0","num_feature":"10398","num_nodes":"47","size_leaf_vector":"1"}},{"base_weights":[-5.4998845E-1,-7.367529E-1,-4.0276447E-1,-7.8610516E-1,1.8637949E-1,-7.199761E-1,-1.3971995E-1,-2.7491954E-1,-9.2822015E-1,-8.3119583E-1,3.5173434E-1,8.04803E-1,-2.968059E-1,6.953489E-1,-7.753133E-1,-9.911208E-2,-2.9302746E-1,-9.287422E-1,1.7700356E-1,-1.8794341E-1,4.4317415E-1,1.9098827E0,-2.1045566E-1,-5.580983E-1,2.050489E-1,1.29181E0,-1.6711906E-1,-2.625143E-1,-1.1580667E-3,-1.7034347E-1,1.4591473E-1,-2.89418E-1,-2.553518E-3,-1.7458935E-1,2.9766545E-1,9.0783036E-1,4.0131174E-2,-8.7328863E-1,1.821701E-2,7.9981935E-1,-5.179073E-1,9.1360085E-2,5.492704E-1,-2.8058746E-1,-2.3806135E-3,-2.1994705E-1,1.3354297E-1,6.5124524E-1,5.4139644E-2,9.057415E-2,-2.4471317E-1],"categories":[],"categories_nodes":[],"categories_segments":[],"categories_sizes":[],"default_left":[0,0,0,0,0,0,0,0,0,0,0,0,0,0,0,0,0,0,0,0,0,0,0,0,0,0,0,0,0,0,0,0,0,0,0,0,0,0,0,0,0,0,0,0,0,0,0,0,0,0,0],"id":14,"left_children":[1,3,5,7,-1,9,11,13,15,17,19,21,23,25,27,29,-1,31,33,-1,-1,35,-1,37,39,41,-1,-1,-1,-1,-1,-1,-1,-1,-1,-1,-1,43,45,47,49,-1,-1,-1,-1,-1,-1,-1,-1,-1,-1],"loss_changes":[3.0355759E0,3.9879608E0,5.738229E0,3.43721E0,0E0,4.044739E0,6.0987554E0,6.59704E0,1.4867325E0,2.9985714E0,4.957852E0,1.116308E1,4.6507115E0,4.284819E0,6.6636467E-1,1.178779E0,0E0,8.671951E-1,2.6700869E0,0E0,0E0,6.8762894E0,0E0,4.197066E0,5.8216987E0,1.3234515E0,0E0,0E0,0E0,0E0,0E0,0E0,0E0,0E0,0E0,0E0,0E0,7.920456E-1,3.2510703E0,5.80059E0,1.7802765E0,0E0,0E0,0E0,0E0,0E0,0E0,0E0,0E0,0E0,0E0],"parents":[2147483647,0,0,1,1,2,2,3,3,5,5,6,6,7,7,8,8,9,9,10,10,11,11,12,12,13,13,14,14,15,15,17,17,18,18,21,21,23,23,24,24,25,25,37,37,38,38,39,39,40,40],"right_children":[2,4,6,8,-1,10,12,14,16,18,20,22,24,26,28,30,-1,32,34,-1,-1,36,-1,38,40,42,-1,-1,-1,-1,-1,-1,-1,-1,-1,-1,-1,44,46,48,50,-1,-1,-1,-1,-1,-1,-1,-1,-1,-1],"split_conditions":[4E1,1.548E3,6.6E1,5E0,1.8637949E-1,4.12E2,8E0,4E0,5E0,7.3E2,4E1,7E0,2.61E2,7E0,9.97E2,6.8E1,-2.9302746E-1,1.21E3,3.2E1,-1.8794341E-1,4.4317415E-1,2.2E1,-2.1045566E-1,3.34E2,2E1,1.1E1,-1.6711906E-1,-2.625143E-1,-1.1580667E-3,-1.7034347E-1,1.4591473E-1,-2.89418E-1,-2.553518E-3,-1.7458935E-1,2.9766545E-1,9.0783036E-1,4.0131174E-2,1.628E3,8.1E1,3.4E1,7E0,9.1360085E-2,5.492704E-1,-2.8058746E-1,-2.3806135E-3,-2.1994705E-1,1.3354297E-1,6.5124524E-1,5.4139644E-2,9.057415E-2,-2.4471317E-1],"split_indices":[10308,5078,5103,5154,0,10258,5108,10353,5139,10208,4996,10153,10320,5057,10329,10284,0,5033,5026,0,0,5073,0,5087,5142,10382,0,0,0,0,0,0,0,0,0,0,0,5148,10350,10332,5084,0,0,0,0,0,0,0,0,0,0],"split_type":[0,0,0,0,0,0,0,0,0,0,0,0,0,0,0,0,0,0,0,0,0,0,0,0,0,0,0,0,0,0,0,0,0,0,0,0,0,0,0,0,0,0,0,0,0,0,0,0,0,0,0],"sum_hessian":[1.2019173E2,5.1216072E1,6.8975655E1,4.9826447E1,1.389623E0,3.048091E1,3.8494743E1,1.1477288E1,3.834916E1,2.78184E1,2.6625102E0,4.9012547E0,3.359349E1,3.7725918E0,7.7046967E0,2.289127E0,3.606003E1,2.5436182E1,2.3822172E0,1.661683E0,1.0008273E0,2.6726286E0,2.2286263E0,2.2017782E1,1.15757065E1,2.5342152E0,1.2383766E0,6.7037444E0,1.0009524E0,1.2881446E0,1.0009825E0,2.4432428E1,1.0037538E0,1.38184E0,1.0003773E0,1.2090245E0,1.463604E0,1.3900319E1,8.117463E0,6.292554E0,5.2831526E0,1.4477493E0,1.0864658E0,1.2895529E1,1.0047909E0,2.6812584E0,5.436205E0,1.1786127E0,5.113941E0,1.4040755E0,3.8790772E0],"tree_param":{"num_deleted":"0","num_feature":"10398","num_nodes":"51","size_leaf_vector":"1"}},{"base_weights":[-4.8460704E-1,-6.769257E-1,-3.3509204E-1,-3.912571E-1,-2.872212E-1,-7.4457866E-1,-4.434374E-2,-6.463337E-1,6.35338E-1,-8.4689E-1,2.0473816E-1,3.6312765E-1,-3.1635526E-1,-8.308141E-1,5.504116E-1,5.660834E-1,-1.4166723E-1,-9.148853E-1,6.507549E-2,9.025987E-1,-6.5881073E-1,-8.326429E-1,-2.9329741E-2,6.789744E-2,-2.8221726E-1,-1.6290238E-1,4.3695858E-1,-2.0263846E-1,2.1395576E-1,-2.871808E-1,-1.7381377E-3,1.9508398E0,9.990026E-2,-2.3807785E-1,-3.097477E-3,-2.6736495E-1,-6.432022E-2,-2.294766E-1,2.280873E-1,8.4294933E-1,-3.7408676E-2,-2.0740683E-1,1.8830168E-1,2.003399E-1,-1.09596685E-1],"categories":[],"categories_nodes":[],"categories_segments":[],"categories_sizes":[],"default_left":[0,0,0,0,0,0,0,0,0,0,0,0,0,0,0,0,0,0,0,0,0,0,0,0,0,0,0,0,0,0,0,0,0,0,0,0,0,0,0,0,0,0,0,0,0],"id":15,"left_children":[1,3,5,7,-1,9,11,13,15,17,-1,19,21,23,25,-1,27,29,-1,31,33,35,37,-1,-1,-1,-1,-1,-1,-1,-1,39,41,-1,-1,-1,-1,-1,43,-1,-1,-1,-1,-1,-1],"loss_changes":[2.7411442E0,3.1641788E0,7.1165643E0,6.583149E0,0E0,4.2091846E0,4.125014E0,4.7351E0,5.319975E0,1.9094009E0,0E0,8.836346E0,3.2699544E0,2.2098455E0,3.9509058E0,0E0,2.3689024E0,8.584709E-1,0E0,8.392898E0,4.9378037E-1,9.524584E-2,3.076203E0,0E0,0E0,0E0,0E0,0E0,0E0,0E0,0E0,8.145416E0,3.287881E0,0E0,0E0,0E0,0E0,0E0,3.4069934E0,0E0,0E0,0E0,0E0,0E0,0E0],"parents":[2147483647,0,0,1,1,2,2,3,3,5,5,6,6,7,7,8,8,9,9,11,11,12,12,13,13,14,14,16,16,17,17,19,19,20,20,21,21,22,22,31,31,32,32,38,38],"right_children":[2,4,6,8,-1,10,12,14,16,18,-1,20,22,24,26,-1,28,30,-1,32,34,36,38,-1,-1,-1,-1,-1,-1,-1,-1,40,42,-1,-1,-1,-1,-1,44,-1,-1,-1,-1,-1,-1],"split_conditions":[1.07E2,2E0,6.4E1,7.8E1,-2.872212E-1,7.96E2,3.6E1,1.036E3,7.7E1,1.505E3,2.0473816E-1,8.6E1,1.4E1,3E0,1.04E2,5.660834E-1,3.73E2,1.047E3,6.507549E-2,1.18E2,5.8E1,8.2E1,2.7E1,6.789744E-2,-2.8221726E-1,-1.6290238E-1,4.3695858E-1,-2.0263846E-1,2.1395576E-1,-2.871808E-1,-1.7381377E-3,1.45E2,2.43E2,-2.3807785E-1,-3.097477E-3,-2.6736495E-1,-6.432022E-2,-2.294766E-1,8E0,8.4294933E-1,-3.7408676E-2,-2.0740683E-1,1.8830168E-1,2.003399E-1,-1.09596685E-1],"split_indices":[5180,10172,10379,10226,0,5156,5083,5033,10272,10212,0,10386,10214,10378,10345,0,5006,5161,0,10336,4947,4862,5176,0,0,0,0,0,0,0,0,5167,5137,0,0,0,0,0,4865,0,0,0,0,0,0],"split_type":[0,0,0,0,0,0,0,0,0,0,0,0,0,0,0,0,0,0,0,0,0,0,0,0,0,0,0,0,0,0,0,0,0,0,0,0,0,0,0,0,0,0,0,0,0],"sum_hessian":[1.0221772E2,4.3166233E1,5.9051483E1,2.257175E1,2.0594482E1,2.3870974E1,3.518051E1,1.8376242E1,4.1955085E0,2.2653383E1,1.217589E0,1.3949414E1,2.1231098E1,1.6186792E1,2.189451E0,1.0598346E0,3.1356738E0,2.1424017E1,1.229367E0,9.206285E0,4.7431283E0,6.9067082E0,1.4324389E1,1.4246842E0,1.4762108E1,1.1737758E0,1.0156751E0,2.059509E0,1.0761646E0,2.0419037E1,1.0049807E0,3.3721955E0,5.83409E0,3.7416883E0,1.0014402E0,5.9056606E0,1.0010477E0,3.2022233E0,1.1122167E1,2.134864E0,1.2373314E0,2.210328E0,3.6237621E0,6.3163986E0,4.805768E0],"tree_param":{"num_deleted":"0","num_feature":"10398","num_nodes":"45","size_leaf_vector":"1"}},{"base_weights":[-4.2610818E-1,-7.0579994E-1,-3.098867E-1,-3.279375E-2,-2.8492537E-1,-7.0102036E-1,-1.8198611E-1,-6.2176937E-1,7.662384E-1,-8.6973757E-1,2.5684768E-1,-5.2300125E-2,-7.0058894E-1,-1.0072716E-2,-2.2725229E-1,4.5663455E-1,-1.603179E-1,-2.7925292E-1,-6.102156E-3,-1.6472176E-1,6.7715156E-1,-2.63291E-1,1.324548E-1,-4.8404682E-1,1.8861699E-1,1.6265548E0,-4.4841796E-1,2.0407163E-1,-2.0626546E-1,-1.23350374E-1,1.8542716E-1,7.352843E-1,6.630199E-2,-1.773538E-1,-1.5451668E-2],"categories":[],"categories_nodes":[],"categories_segments":[],"categories_sizes":[],"default_left":[0,0,0,0,0,0,0,0,0,0,0,0,0,0,0,0,0,0,0,0,0,0,0,0,0,0,0,0,0,0,0,0,0,0,0],"id":16,"left_children":[1,3,5,7,-1,9,11,13,15,17,-1,19,21,-1,-1,-1,-1,-1,-1,23,25,-1,-1,27,29,31,33,-1,-1,-1,-1,-1,-1,-1,-1],"loss_changes":[2.7170048E0,4.1930323E0,3.153337E0,4.185199E0,0E0,4.8984323E0,3.3781428E0,3.808539E-1,4.5414076E0,7.472067E-1,0E0,3.5309596E0,2.4249678E0,0E0,0E0,0E0,0E0,0E0,0E0,4.258482E0,6.888668E0,0E0,0E0,5.130827E0,4.9558253E0,3.331563E0,1.6340393E-1,0E0,0E0,0E0,0E0,0E0,0E0,0E0,0E0],"parents":[2147483647,0,0,1,1,2,2,3,3,5,5,6,6,7,7,8,8,9,9,11,11,12,12,19,19,20,20,23,23,24,24,25,25,26,26],"right_children":[2,4,6,8,-1,10,12,14,16,18,-1,20,22,-1,-1,-1,-1,-1,-1,24,26,-1,-1,28,30,32,34,-1,-1,-1,-1,-1,-1,-1,-1],"split_conditions":[2.6E1,1.6E1,2.6E1,1.46E2,-2.8492537E-1,5.54E2,2.8E1,1E1,2.5E1,1.18E3,2.5684768E-1,7.09E2,5.46E2,-1.0072716E-2,-2.2725229E-1,4.5663455E-1,-1.603179E-1,-2.7925292E-1,-6.102156E-3,4.4E1,6E0,-2.63291E-1,1.324548E-1,3E0,3E1,9.5E1,1.52E2,2.0407163E-1,-2.0626546E-1,-1.23350374E-1,1.8542716E-1,7.352843E-1,6.630199E-2,-1.773538E-1,-1.5451668E-2],"split_indices":[10392,5193,5193,5083,0,10093,10096,10272,10296,10247,0,10373,4809,0,0,0,0,0,0,5065,5034,0,0,10380,10265,10394,4978,0,0,0,0,0,0,0,0],"split_type":[0,0,0,0,0,0,0,0,0,0,0,0,0,0,0,0,0,0,0,0,0,0,0,0,0,0,0,0,0,0,0,0,0,0,0],"sum_hessian":[8.93127E1,2.4728842E1,6.458386E1,6.8807745E0,1.7848068E1,1.4810572E1,4.977329E1,4.088754E0,2.79202E0,1.3761056E1,1.0495166E0,4.0697094E1,9.076194E0,1.0005281E0,3.088226E0,1.6581045E0,1.1339157E0,1.2748075E1,1.0129807E0,3.5933308E1,4.7637854E0,8.058532E0,1.0176615E0,1.8680836E1,1.7252474E1,2.3426747E0,2.4211104E0,2.4308574E0,1.6249979E1,7.216639E0,1.0035834E1,1.0078034E0,1.3348712E0,1.4206766E0,1.0004339E0],"tree_param":{"num_deleted":"0","num_feature":"10398","num_nodes":"35","size_leaf_vector":"1"}},{"base_weights":[-3.616409E-1,-2.8814307E-1,-2.6818997E-1,1.9819163E-1,-3.6105472E-1,9.892329E-1,-4.3800476E-1,-6.4985406E-1,-1.07767574E-1,6.1479044E-1,-1.5035304E-1,-2.4183469E-1,1.8756767E-1,1.6956101E-1,-7.78337E-1,5.7376422E-2,-6.748684E-1,-1.6677614E-1,1.1342979E-1,-2.1350387E-1,4.1712865E-1,-8.441351E-1,9.413525E-2,-1.073384E-1,9.6483505E-1,-2.5758362E-1,8.6193666E-2,5.9134733E-2,-2.7507386E-1,-2.0572935E-1,5.535841E-2,5.364516E-1,-1.6960216E-1],"categories":[],"categories_nodes":[],"categories_segments":[],"categories_sizes":[],"default_left":[0,0,0,0,0,0,0,0,0,0,0,0,0,0,0,0,0,0,0,0,0,0,0,0,0,0,0,0,0,0,0,0,0],"id":17,"left_children":[1,3,-1,5,7,9,11,13,15,-1,17,-1,-1,19,21,23,25,-1,-1,-1,-1,27,-1,29,31,-1,-1,-1,-1,-1,-1,-1,-1],"loss_changes":[2.88476E0,2.626339E0,0E0,5.4854136E0,4.5390263E0,6.0846496E0,2.95295E0,3.2105856E0,3.2947845E0,0E0,9.037612E-1,0E0,0E0,6.1373067E0,2.0942135E0,4.266021E0,1.6468046E0,0E0,0E0,0E0,0E0,2.020792E0,0E0,4.2575574E0,6.526903E0,0E0,0E0,0E0,0E0,0E0,0E0,0E0,0E0],"parents":[2147483647,0,0,1,1,3,3,4,4,5,5,6,6,7,7,8,8,10,10,13,13,14,14,15,15,16,16,21,21,23,23,24,24],"right_children":[2,4,-1,6,8,10,12,14,16,-1,18,-1,-1,20,22,24,26,-1,-1,-1,-1,28,-1,30,32,-1,-1,-1,-1,-1,-1,-1,-1],"split_conditions":[4.81E2,4E0,-2.6818997E-1,1.8E1,7.8E1,2.6E1,6.39E2,5E0,2.19E2,6.1479044E-1,1.3E1,-2.4183469E-1,1.8756767E-1,1.41E2,1.103E3,5.98E2,4.63E2,-1.6677614E-1,1.1342979E-1,-2.1350387E-1,4.1712865E-1,3E0,9.413525E-2,1.31E2,1.2E1,-2.5758362E-1,8.6193666E-2,5.9134733E-2,-2.7507386E-1,-2.0572935E-1,5.535841E-2,5.364516E-1,-1.6960216E-1],"split_indices":[5173,10341,0,5131,5133,10387,10312,10332,10297,0,5000,0,0,5010,10259,10379,5048,0,0,0,0,10348,0,5137,5032,0,0,0,0,0,0,0,0],"split_type":[0,0,0,0,0,0,0,0,0,0,0,0,0,0,0,0,0,0,0,0,0,0,0,0,0,0,0,0,0,0,0,0,0],"sum_hessian":[7.9316154E1,7.104791E1,8.268245E0,9.038843E0,6.2009068E1,3.781741E0,5.2571025E0,2.8241867E1,3.3767204E1,1.5456535E0,2.2360873E0,4.084718E0,1.1723841E0,3.7847123E0,2.4457155E1,2.684776E1,6.919443E0,1.2357315E0,1.000356E0,2.4403222E0,1.34439E0,2.3281557E1,1.175598E0,2.3469479E1,3.3782816E0,5.9003224E0,1.0191209E0,1.4093362E0,2.1872221E1,7.4182587E0,1.605122E1,2.0868247E0,1.2914568E0],"tree_param":{"num_deleted":"0","num_feature":"10398","num_nodes":"33","size_leaf_vector":"1"}},{"base_weights":[-3.0781358E-1,-2.40409E-1,-2.5948298E-1,-1.6192654E-1,-7.810192E-1,-4.4580182E-1,1.2602533E-2,-2.6881036E-1,3.4788842E-3,1.9599544E-2,-8.5325426E-1,-6.414024E-1,1.86242E-1,-3.2189265E-1,8.870937E-1,-2.7309328E-1,-3.5348106E-2,1.23500474E-1,-2.5782096E-1,5.3355736E-1,-2.5621188E-1,1.1617781E-1,-2.4637336E-1,5.3363806E-1,-8.113417E-2,-2.0011358E-1,2.2028372E-1,1.22522436E-1,-1.8641937E-1],"categories":[],"categories_nodes":[],"categories_segments":[],"categories_sizes":[],"default_left":[0,0,0,0,0,0,0,0,0,0,0,0,0,0,0,0,0,0,0,0,0,0,0,0,0,0,0,0,0],"id":18,"left_children":[1,3,-1,5,7,9,11,-1,-1,13,15,17,19,21,23,-1,-1,-1,-1,25,27,-1,-1,-1,-1,-1,-1,-1,-1],"loss_changes":[2.4762516E0,2.6376505E0,0E0,2.8866582E0,7.3944235E-1,4.220276E0,4.31932E0,0E0,0E0,3.6405923E0,3.8963985E-1,2.1867023E0,4.7467113E0,3.455544E0,4.0577965E0,0E0,0E0,0E0,0E0,4.618125E0,3.6197524E0,0E0,0E0,0E0,0E0,0E0,0E0,0E0,0E0],"parents":[2147483647,0,0,1,1,3,3,4,4,5,5,6,6,9,9,10,10,11,11,12,12,13,13,14,14,19,19,20,20],"right_children":[2,4,-1,6,8,10,12,-1,-1,14,16,18,20,22,24,-1,-1,-1,-1,26,28,-1,-1,-1,-1,-1,-1,-1,-1],"split_conditions":[4.81E2,8E1,-2.5948298E-1,4E1,3.88E2,2.9E1,1.3E1,-2.6881036E-1,3.4788842E-3,5.23E2,4.3E2,5E0,7.4E1,3E0,1E1,-2.7309328E-1,-3.5348106E-2,1.23500474E-1,-2.5782096E-1,1.3E1,2.6E1,1.1617781E-1,-2.4637336E-1,5.3363806E-1,-8.113417E-2,-2.0011358E-1,2.2028372E-1,1.22522436E-1,-1.8641937E-1],"split_indices":[5173,10031,0,10308,4965,5147,5070,0,0,10309,10087,10330,5084,5108,5191,0,0,0,0,10384,10383,0,0,0,0,0,0,0,0],"split_type":[0,0,0,0,0,0,0,0,0,0,0,0,0,0,0,0,0,0,0,0,0,0,0,0,0,0,0,0,0],"sum_hessian":[7.047724E1,6.4147804E1,6.3294373E0,5.7150562E1,6.9972405E0,2.1167253E1,3.5983307E1,5.9966035E0,1.0006369E0,1.0325328E1,1.0841927E1,6.984109E0,2.8999197E1,7.8601084E0,2.46522E0,9.84066E0,1.0012664E0,1.045475E0,5.938634E0,1.6130919E1,1.28682785E1,3.340537E0,4.5195713E0,1.0893501E0,1.3758699E0,1.9777731E0,1.4153146E1,4.52133E0,8.346948E0],"tree_param":{"num_deleted":"0","num_feature":"10398","num_nodes":"29","size_leaf_vector":"1"}},{"base_weights":[-2.6789078E-1,-1.9276065E-1,-7.417458E-1,1.5690029E-2,-4.1883573E-1,-2.6416647E-1,4.797743E-2,2.595937E-1,-6.095083E-1,-8.0579627E-1,4.9032748E-2,-1.2884834E-1,7.5046724E-1,-2.633308E-1,1.9823472E-1,-2.705739E-1,2.6938597E-2,3.326311E-1,-1.4712644E-1,4.5649257E-1,-5.9263146E-1,-5.258678E-1,1.2902849E0,-2.1313693E-1,6.28979E-2,-2.4452297E-2,4.4044703E-1,-2.5380683E-1,6.502979E-2,-2.8993485E-2,-1.9349541E-1,4.6983188E-1,-3.2925457E-2,6.772001E-2,-1.6849677E-1],"categories":[],"categories_nodes":[],"categories_segments":[],"categories_sizes":[],"default_left":[0,0,0,0,0,0,0,0,0,0,0,0,0,0,0,0,0,0,0,0,0,0,0,0,0,0,0,0,0,0,0,0,0,0,0],"id":19,"left_children":[1,3,5,7,9,-1,-1,11,13,15,17,19,21,-1,-1,-1,-1,-1,23,25,27,29,31,-1,33,-1,-1,-1,-1,-1,-1,-1,-1,-1,-1],"loss_changes":[2.1993408E0,2.746499E0,1.2238293E0,4.9179187E0,5.0956974E0,0E0,0E0,4.5118194E0,3.6668472E0,1.4017143E0,2.9870932E0,4.0113225E0,7.8270617E0,0E0,0E0,0E0,0E0,0E0,1.5053556E0,3.7425983E0,1.8494236E0,1.3166189E-1,3.0993872E0,0E0,1.1347946E0,0E0,0E0,0E0,0E0,0E0,0E0,0E0,0E0,0E0,0E0],"parents":[2147483647,0,0,1,1,2,2,3,3,4,4,7,7,8,8,9,9,10,10,11,11,12,12,18,18,19,19,20,20,21,21,22,22,24,24],"right_children":[2,4,6,8,10,-1,-1,12,14,16,18,20,22,-1,-1,-1,-1,-1,24,26,28,30,32,-1,34,-1,-1,-1,-1,-1,-1,-1,-1,-1,-1],"split_conditions":[3E0,1.6E1,3.95E2,1.28E2,5.8E1,-2.6416647E-1,4.797743E-2,2.2E1,1.61E3,1.823E3,9E0,7E0,2E1,-2.633308E-1,1.9823472E-1,-2.705739E-1,2.6938597E-2,3.326311E-1,1.75E2,9.4E1,3.49E2,9E0,2.2E1,-2.1313693E-1,9.9E1,-2.4452297E-2,4.4044703E-1,-2.5380683E-1,6.502979E-2,-2.8993485E-2,-1.9349541E-1,4.6983188E-1,-3.2925457E-2,6.772001E-2,-1.6849677E-1],"split_indices":[4684,10195,10038,5166,4985,0,0,10238,10361,10206,10213,5108,5064,0,0,0,0,0,5181,5172,10295,5175,4936,0,10155,0,0,0,0,0,0,0,0,0,0],"split_type":[0,0,0,0,0,0,0,0,0,0,0,0,0,0,0,0,0,0,0,0,0,0,0,0,0,0,0,0,0,0,0,0,0,0,0],"sum_hessian":[6.4794044E1,5.714107E1,7.6529746E0,3.0213533E1,2.692754E1,6.652295E0,1.0006794E0,2.2155115E1,8.058418E0,1.4342773E1,1.2584765E1,1.2779695E1,9.375421E0,6.9084806E0,1.1499374E0,1.2946293E1,1.3964807E0,1.2389601E0,1.1345805E1,5.6564307E0,7.1232643E0,2.7943504E0,6.58107E0,2.4341536E0,8.911652E0,4.2929068E0,1.363524E0,5.390466E0,1.7327979E0,1.000504E0,1.7938462E0,5.398828E0,1.1822423E0,7.575194E0,1.3364578E0],"tree_param":{"num_deleted":"0","num_feature":"10398","num_nodes":"35","size_leaf_vector":"1"}},{"base_weights":[-2.3276126E-1,-6.999385E-2,-4.4961792E-1,1.3691196E-1,-7.1629894E-1,-8.1501526E-1,-4.55466E-2,-1.2272271E-1,6.126743E-1,-2.6632616E-1,9.448764E-2,-2.7799332E-1,7.822618E-2,-2.164679E-1,1.8303217E-1,3.8080466E-1,-7.00877E-1,-4.0652698E-1,1.1624764E0,-2.3287217E-1,4.9280605E-1,-2.6020536E-1,8.789942E-1,6.0147095E-2,-2.629029E-1,-2.0917408E-1,8.122277E-2,1.5113286E0,-2.0579481E-2,7.5138055E-2,-5.76431E-1,-3.1014366E-2,7.276486E-1,-2.2733283E-1,2.0132165E-1,2.6300019E-2,4.9212825E-1,6.1440504E-1,6.888459E-2,-4.1447517E-2,-2.1520095E-1,7.1129203E-3,2.800563E-1],"categories":[],"categories_nodes":[],"categories_segments":[],"categories_sizes":[],"default_left":[0,0,0,0,0,0,0,0,0,0,0,0,0,0,0,0,0,0,0,0,0,0,0,0,0,0,0,0,0,0,0,0,0,0,0,0,0,0,0,0,0,0,0],"id":20,"left_children":[1,3,5,7,9,11,13,15,17,-1,-1,-1,-1,-1,19,21,23,25,27,29,31,33,35,-1,-1,-1,-1,37,-1,-1,39,-1,41,-1,-1,-1,-1,-1,-1,-1,-1,-1,-1],"loss_changes":[2.1102598E0,4.891494E0,3.7768102E0,3.532941E0,1.8449612E0,1.8634872E0,2.1911983E0,5.781442E0,6.1040325E0,0E0,0E0,0E0,0E0,0E0,1.500549E0,3.6689434E0,1.6260147E0,1.0280374E0,3.018548E0,1.0195801E0,9.832673E-1,3.0490701E0,3.646233E0,0E0,0E0,0E0,0E0,3.1975403E0,0E0,0E0,1.0985303E-1,0E0,6.7018294E-1,0E0,0E0,0E0,0E0,0E0,0E0,0E0,0E0,0E0,0E0],"parents":[2147483647,0,0,1,1,2,2,3,3,4,4,5,5,6,6,7,7,8,8,14,14,15,15,16,16,17,17,18,18,19,19,20,20,21,21,22,22,27,27,30,30,32,32],"right_children":[2,4,6,8,10,12,14,16,18,-1,-1,-1,-1,-1,20,22,24,26,28,30,32,34,36,-1,-1,-1,-1,38,-1,-1,40,-1,42,-1,-1,-1,-1,-1,-1,-1,-1,-1,-1],"split_conditions":[6.3E1,1.8E1,1.91E2,2.7E1,2.87E2,1.514E3,1.3E2,2E0,1.1E1,-2.6632616E-1,9.448764E-2,-2.7799332E-1,7.822618E-2,-2.164679E-1,1.6E1,2.7E1,6E0,2.74E2,6E0,1E1,1.08E2,4.25E2,1.32E2,6.0147095E-2,-2.629029E-1,-2.0917408E-1,8.122277E-2,5.2E1,-2.0579481E-2,7.5138055E-2,1.3E2,-3.1014366E-2,5.7E1,-2.2733283E-1,2.0132165E-1,2.6300019E-2,4.9212825E-1,6.1440504E-1,6.888459E-2,-4.1447517E-2,-2.1520095E-1,7.1129203E-3,2.800563E-1],"split_indices":[10278,4896,5007,4992,10125,10136,5096,10221,10216,0,0,0,0,0,4949,5156,10335,5033,10109,10186,10224,10383,10302,0,0,0,0,4964,0,0,10140,0,5025,0,0,0,0,0,0,0,0,0,0],"split_type":[0,0,0,0,0,0,0,0,0,0,0,0,0,0,0,0,0,0,0,0,0,0,0,0,0,0,0,0,0,0,0,0,0,0,0,0,0,0,0,0,0,0,0],"sum_hessian":[5.9677067E1,3.4845577E1,2.483149E1,2.6992466E1,7.853111E0,1.2505706E1,1.2325784E1,1.7942741E1,9.049726E0,6.8529134E0,1.0001978E0,1.1455616E1,1.0500906E0,2.5695915E0,9.756192E0,9.772767E0,8.169974E0,3.2624745E0,5.787251E0,4.2706466E0,5.485545E0,4.482687E0,5.2900805E0,1.3080277E0,6.8619466E0,2.2620053E0,1.0004692E0,4.332026E0,1.4552246E0,1.8869677E0,2.383679E0,1.7083633E0,3.777182E0,3.0430992E0,1.4395876E0,3.1409495E0,2.1491308E0,2.6320436E0,1.6999825E0,1.0617414E0,1.3219374E0,1.1070421E0,2.67014E0],"tree_param":{"num_deleted":"0","num_feature":"10398","num_nodes":"43","size_leaf_vector":"1"}},{"base_weights":[-2.0080258E-1,-1.15899496E-1,-5.718635E-1,6.4802706E-2,-3.8426498E-1,-8.2133675E-1,1.3613436E-1,2.5988108E-1,-6.9902223E-1,-8.2705265E-1,4.7082923E-2,-2.6054916E-1,-7.1111396E-2,4.2892453E-1,-5.5301243E-1,-2.4368909E-1,-1.8784033E-2,-2.646462E-1,-5.533598E-2,-1.6582702E-1,2.6189536E-1,5.4469067E-1,-1.802344E-1,-2.1438529E-1,1.1352744E-3,-2.3785736E-1,4.660875E-1,-2.822194E-2,2.2020039E-1,9.0569975E-3,-1.14193685E-1,-6.507738E-2,2.1360168E-1],"categories":[],"categories_nodes":[],"categories_segments":[],"categories_sizes":[],"default_left":[0,0,0,0,0,0,0,0,0,0,0,0,0,0,0,0,0,0,0,0,0,0,0,0,0,0,0,0,0,0,0,0,0],"id":21,"left_children":[1,3,5,7,9,11,-1,13,15,17,19,-1,-1,21,23,-1,-1,-1,-1,-1,25,27,-1,-1,-1,29,31,-1,-1,-1,-1,-1,-1],"loss_changes":[1.677289E0,2.2698338E0,2.9445088E0,4.431385E0,3.6243548E0,2.6719093E-2,0E0,3.459198E0,3.8695097E-1,1.6718626E-1,1.491935E0,0E0,0E0,2.7082396E0,4.0522122E-1,0E0,0E0,0E0,0E0,0E0,9.6567273E-1,2.3037167E0,0E0,0E0,0E0,1.2983257E-1,1.2100801E0,0E0,0E0,0E0,0E0,0E0,0E0],"parents":[2147483647,0,0,1,1,2,2,3,3,4,4,5,5,7,7,8,8,9,9,10,10,13,13,14,14,20,20,21,21,25,25,26,26],"right_children":[2,4,6,8,10,12,-1,14,16,18,20,-1,-1,22,24,-1,-1,-1,-1,-1,26,28,-1,-1,-1,30,32,-1,-1,-1,-1,-1,-1],"split_conditions":[3.08E2,6.3E1,7.35E2,2.88E2,1.3E2,8.15E2,1.3613436E-1,1.59E2,4.35E2,2.14E2,1E1,-2.6054916E-1,-7.1111396E-2,2.51E2,3.41E2,-2.4368909E-1,-1.8784033E-2,-2.646462E-1,-5.533598E-2,-1.6582702E-1,1.03E2,4E0,-1.802344E-1,-2.1438529E-1,1.1352744E-3,5.4E1,5.6E1,-2.822194E-2,2.2020039E-1,9.0569975E-3,-1.14193685E-1,-6.507738E-2,2.1360168E-1],"split_indices":[5096,10278,10295,5173,5096,5035,0,10343,5021,10037,4944,0,0,5059,5088,0,0,0,0,0,5000,5128,0,0,0,10164,10187,0,0,0,0,0,0],"split_type":[0,0,0,0,0,0,0,0,0,0,0,0,0,0,0,0,0,0,0,0,0,0,0,0,0,0,0,0,0,0,0,0,0],"sum_hessian":[5.434394E1,4.529277E1,9.051169E0,2.7520527E1,1.7772245E1,7.4405603E0,1.6106093E0,2.2447319E1,5.073208E0,8.317149E0,9.455096E0,6.4347973E0,1.0057633E0,1.8973976E1,3.473342E0,4.0720463E0,1.0011613E0,7.3169494E0,1.0001999E0,2.0783446E0,7.3767514E0,1.7479807E1,1.4941696E0,2.472327E0,1.0010151E0,2.0919387E0,5.284813E0,4.111165E0,1.3368642E1,1.0011364E0,1.0908023E0,1.4302738E0,3.8545392E0],"tree_param":{"num_deleted":"0","num_feature":"10398","num_nodes":"33","size_leaf_vector":"1"}},{"base_weights":[-1.8693204E-1,-1.2474888E-1,-6.661105E-1,-2.4623863E-2,-4.978491E-1,-2.4480872E-1,9.3420054E-4,-4.975588E-1,9.485792E-2,9.897282E-2,-7.06361E-1,-7.612874E-1,1.1212691E-1,-1.9474389E-1,3.2966754E-1,-2.600576E-1,5.4522976E-2,-2.4580686E-1,-6.725884E-2,3.8914344E-1,-7.1124417E-1,5.731157E-1,-2.547794E-1,2.2127488E-1,-1.1261938E-1,-2.597894E-1,5.8156043E-2,-5.4090973E-2,2.5357708E-1,-2.0674248E-1,2.89416E-2],"categories":[],"categories_nodes":[],"categories_segments":[],"categories_sizes":[],"default_left":[0,0,0,0,0,0,0,0,0,0,0,0,0,0,0,0,0,0,0,0,0,0,0,0,0,0,0,0,0,0,0],"id":22,"left_children":[1,3,5,7,9,-1,-1,11,13,-1,15,17,-1,19,21,-1,-1,-1,-1,23,25,27,29,-1,-1,-1,-1,-1,-1,-1,-1],"loss_changes":[1.469894E0,1.7570684E0,5.800569E-1,2.2167337E0,1.9536686E0,0E0,0E0,2.1007187E0,2.205589E0,0E0,1.3379788E0,1.5799284E-2,0E0,4.7186384E0,2.6731927E0,0E0,0E0,0E0,0E0,2.2907743E0,1.3118339E0,2.786396E0,9.689661E-1,0E0,0E0,0E0,0E0,0E0,0E0,0E0,0E0],"parents":[2147483647,0,0,1,1,2,2,3,3,4,4,7,7,8,8,10,10,11,11,13,13,14,14,19,19,20,20,21,21,22,22],"right_children":[2,4,6,8,10,-1,-1,12,14,-1,16,18,-1,20,22,-1,-1,-1,-1,24,26,28,30,-1,-1,-1,-1,-1,-1,-1,-1],"split_conditions":[2E0,2.37E2,1.098E3,1.3E1,7E0,-2.4480872E-1,9.3420054E-4,2.96E2,8.9E1,9.897282E-2,6.26E2,3.78E2,1.1212691E-1,1.9E1,5.3E1,-2.600576E-1,5.4522976E-2,-2.4580686E-1,-6.725884E-2,1.8E1,6.46E2,2.1E1,3.8E1,2.2127488E-1,-1.1261938E-1,-2.597894E-1,5.8156043E-2,-5.4090973E-2,2.5357708E-1,-2.0674248E-1,2.89416E-2],"split_indices":[9896,5031,4745,10385,10397,0,0,4959,5103,0,10355,5098,0,10310,10203,0,0,0,0,5085,10228,10290,4976,0,0,0,0,0,0,0,0],"split_type":[0,0,0,0,0,0,0,0,0,0,0,0,0,0,0,0,0,0,0,0,0,0,0,0,0,0,0,0,0,0,0],"sum_hessian":[5.1119312E1,4.6363094E1,4.756216E0,3.7394043E1,8.969051E0,3.7065227E0,1.0496933E0,6.9036374E0,3.0490406E1,1.687548E0,7.281503E0,5.396507E0,1.5071305E0,1.3728737E1,1.676167E1,6.187267E0,1.0942361E0,4.395712E0,1.0007951E0,6.559737E0,7.169E0,1.1846475E1,4.9151955E0,4.53031E0,2.0294266E0,6.159338E0,1.0096622E0,3.2331126E0,8.613361E0,1.7675091E0,3.1476865E0],"tree_param":{"num_deleted":"0","num_feature":"10398","num_nodes":"31","size_leaf_vector":"1"}},{"base_weights":[-1.6991086E-1,-3.3824983E-1,-5.4965005E-3,2.4817224E-1,-5.6030655E-1,-3.3275744E-1,3.7259692E-1,6.227878E-1,-1.8889849E-1,-6.948599E-1,1.063654E-1,-6.4248353E-1,3.8764662E-1,-4.7706345E-1,6.092868E-1,8.709992E-1,-6.562802E-2,-7.699484E-1,-1.7216742E-2,1.9605574E-1,-2.652919E-1,-1.6519895E-1,8.412068E-1,-1.6923678E-1,-4.2010784E-2,9.460168E-1,-8.2673535E-2,4.26451E-2,3.4267712E-1,-8.4647435E-1,-4.4442438E-2,1.6761892E-1,-8.12661E-2,3.5894656E-1,5.249193E-3,1.3542349E0,1.4125855E-2,-1.6611883E-1,2.860075E-1,-2.6740775E-1,-5.093938E-2,1.0527157E-1,4.9802348E-1,-1.1116073E-1,1.2407213E-1,1.571102E-1,-2.9197121E-2],"categories":[],"categories_nodes":[],"categories_segments":[],"categories_sizes":[],"default_left":[0,0,0,0,0,0,0,0,0,0,0,0,0,0,0,0,0,0,0,0,0,0,0,0,0,0,0,0,0,0,0,0,0,0,0,0,0,0,0,0,0,0,0,0,0,0,0],"id":23,"left_children":[1,3,5,7,9,11,13,15,-1,17,-1,19,21,23,25,27,-1,29,-1,31,-1,-1,33,-1,-1,35,37,-1,-1,39,-1,-1,-1,-1,-1,41,43,-1,45,-1,-1,-1,-1,-1,-1,-1,-1],"loss_changes":[1.3505439E0,3.2808344E0,3.3084667E0,2.799242E0,2.4383788E0,3.4450822E0,2.7869012E0,1.3671923E0,0E0,7.1506834E-1,0E0,2.2809181E0,2.561486E0,1.6809344E-2,2.4425647E0,7.373493E-1,0E0,5.460081E-1,0E0,6.839396E-1,0E0,0E0,1.0675328E0,0E0,0E0,2.6080341E0,8.9494205E-1,0E0,0E0,2.2379303E-1,0E0,0E0,0E0,0E0,0E0,8.878956E-1,6.317526E-1,0E0,3.278268E-1,0E0,0E0,0E0,0E0,0E0,0E0,0E0,0E0],"parents":[2147483647,0,0,1,1,2,2,3,3,4,4,5,5,6,6,7,7,9,9,11,11,12,12,13,13,14,14,15,15,17,17,19,19,22,22,25,25,26,26,29,29,35,35,36,36,38,38],"right_children":[2,4,6,8,10,12,14,16,-1,18,-1,20,22,24,26,28,-1,30,-1,32,-1,-1,34,-1,-1,36,38,-1,-1,40,-1,-1,-1,-1,-1,42,44,-1,46,-1,-1,-1,-1,-1,-1,-1,-1],"split_conditions":[6.9E1,6E0,2.31E2,2.9E1,1.547E3,1.6E2,6.3E1,5.6E1,-1.8889849E-1,3.57E2,1.063654E-1,7E0,3.3E1,1.17E2,6E1,1E1,-6.562802E-2,9.32E2,-1.7216742E-2,1.4E1,-2.652919E-1,-1.6519895E-1,2.4E1,-1.6923678E-1,-4.2010784E-2,5.3E1,2.23E2,4.26451E-2,3.4267712E-1,1.996E3,-4.4442438E-2,1.6761892E-1,-8.12661E-2,3.5894656E-1,5.249193E-3,1.32E2,2.28E2,-1.6611883E-1,6E0,-2.6740775E-1,-5.093938E-2,1.0527157E-1,4.9802348E-1,-1.1116073E-1,1.2407213E-1,1.571102E-1,-2.9197121E-2],"split_indices":[5123,10358,10322,5073,10047,4988,5121,10381,0,10241,0,5191,10239,5126,5097,5165,0,10122,0,10350,0,0,10354,0,0,10241,10371,0,0,10392,0,0,0,0,0,5115,10197,0,4989,0,0,0,0,0,0,0,0],"split_type":[0,0,0,0,0,0,0,0,0,0,0,0,0,0,0,0,0,0,0,0,0,0,0,0,0,0,0,0,0,0,0,0,0,0,0,0,0,0,0,0,0,0,0,0,0,0,0],"sum_hessian":[4.7863186E1,2.312692E1,2.4736263E1,6.319736E0,1.6807186E1,1.3323735E1,1.1412528E1,4.633101E0,1.686635E0,1.4861841E1,1.9453443E0,9.39337E0,3.9303653E0,2.265251E0,9.147278E0,3.5508068E0,1.0822942E0,1.3109802E1,1.7520381E0,2.1449268E0,7.248443E0,1.2109997E0,2.7193656E0,1.2647341E0,1.0005168E0,5.90605E0,3.2412274E0,1.3764453E0,2.1743615E0,1.1351462E1,1.7583404E0,1.0966161E0,1.0483106E0,1.5837169E0,1.1356486E0,3.7918186E0,2.1142313E0,1.2026751E0,2.0385523E0,1.0347818E1,1.0036443E0,1.3874797E0,2.4043388E0,1.1139227E0,1.0003088E0,1.0322804E0,1.0062718E0],"tree_param":{"num_deleted":"0","num_feature":"10398","num_nodes":"47","size_leaf_vector":"1"}},{"base_weights":[-1.4326555E-1,-9.520762E-2,-2.116741E-1,-2.5098944E-1,7.4596226E-2,5.4015193E-2,-6.700237E-1,-4.0966684E-1,3.3636543E-1,-2.4765046E-1,3.7187442E-1,-7.876556E-1,3.9207526E-2,-6.884587E-1,1.9893625E-1,5.3508365E-1,-2.251014E-1,-5.1845294E-1,1.2315705E-1,-1.0660729E-1,5.9079546E-1,-2.612296E-1,-2.7221909E-2,-2.4932346E-1,1.9129666E-2,4.0659647E-2,8.52341E-1,-4.773397E-1,9.6105196E-2,-2.3181972E-1,3.177446E-2,2.577322E-1,3.3036523E-2,1.7464146E-1,-1.9573392E-1,3.634518E-2,3.450737E-1,-1.8083366E-2,-1.8755008E-1],"categories":[],"categories_nodes":[],"categories_segments":[],"categories_sizes":[],"default_left":[0,0,0,0,0,0,0,0,0,0,0,0,0,0,0,0,0,0,0,0,0,0,0,0,0,0,0,0,0,0,0,0,0,0,0,0,0,0,0],"id":24,"left_children":[1,3,-1,5,7,9,11,13,15,17,19,21,-1,23,-1,25,27,29,-1,-1,31,-1,-1,-1,-1,33,35,37,-1,-1,-1,-1,-1,-1,-1,-1,-1,-1,-1],"loss_changes":[1.1476108E0,1.1447815E0,0E0,2.9029677E0,2.8174708E0,1.4255902E0,9.9995756E-1,2.8097637E0,1.7126884E0,1.5915693E0,1.3516834E0,4.1018105E-1,0E0,7.756212E-1,0E0,1.6651356E0,7.6301426E-1,1.0221134E0,0E0,0E0,6.6473293E-1,0E0,0E0,0E0,0E0,2.3635294E0,1.2875605E0,1.7401886E-1,0E0,0E0,0E0,0E0,0E0,0E0,0E0,0E0,0E0,0E0,0E0],"parents":[2147483647,0,0,1,1,3,3,4,4,5,5,6,6,7,7,8,8,9,9,10,10,11,11,13,13,15,15,16,16,17,17,20,20,25,25,26,26,27,27],"right_children":[2,4,-1,6,8,10,12,14,16,18,20,22,-1,24,-1,26,28,30,-1,-1,32,-1,-1,-1,-1,34,36,38,-1,-1,-1,-1,-1,-1,-1,-1,-1,-1,-1],"split_conditions":[5.65E2,6.3E1,-2.116741E-1,3.7E1,3.8E1,2.1E1,8.28E2,1.216E3,2.8E1,7.82E2,4.9E1,5.57E2,3.9207526E-2,7.45E2,1.9893625E-1,4.9E1,7.58E2,1.5E2,1.2315705E-1,-1.0660729E-1,4.6E1,-2.612296E-1,-2.7221909E-2,-2.4932346E-1,1.9129666E-2,4E1,4E1,2.4E1,9.6105196E-2,-2.3181972E-1,3.177446E-2,2.577322E-1,3.3036523E-2,1.7464146E-1,-1.9573392E-1,3.634518E-2,3.450737E-1,-1.8083366E-2,-1.8755008E-1],"split_indices":[10244,5160,0,10359,10359,4952,5140,5172,4859,10395,10247,5023,0,5087,0,5065,10126,5081,0,0,10163,0,0,0,0,10380,10291,4914,0,0,0,0,0,0,0,0,0,0,0],"split_type":[0,0,0,0,0,0,0,0,0,0,0,0,0,0,0,0,0,0,0,0,0,0,0,0,0,0,0,0,0,0,0,0,0,0,0,0,0,0,0],"sum_hessian":[4.39527E1,4.1569317E1,2.3833854E0,2.143044E1,2.0138878E1,1.2906914E1,8.523526E0,6.8681216E0,1.3270756E1,6.735469E0,6.1714454E0,7.445962E0,1.0775647E0,5.7357817E0,1.1323398E0,9.836385E0,3.4343712E0,4.9224405E0,1.8130283E0,1.2837485E0,4.8876967E0,6.429737E0,1.0162249E0,4.7334967E0,1.0022848E0,4.2856503E0,5.5507345E0,2.4337728E0,1.0005984E0,3.3290365E0,1.5934039E0,2.6314976E0,2.2561991E0,2.4958825E0,1.7897679E0,2.0140462E0,3.536688E0,1.0052998E0,1.4284731E0],"tree_param":{"num_deleted":"0","num_feature":"10398","num_nodes":"39","size_leaf_vector":"1"}},{"base_weights":[-1.2702198E-1,-5.9289854E-2,-5.137315E-1,1.484436E-2,-5.283874E-1,-2.143067E-1,7.505344E-2,-5.238104E-1,1.2013962E-1,-2.2350305E-1,3.47804E-2,-2.300592E-1,4.71005E-2,2.1542042E-1,-3.4349862E-1,3.2110012E-1,-3.5683343E-1,-5.449401E-1,5.8500737E-2,-1.5606124E-2,1.4478989E-1,-2.0933928E-1,1.1001002E-1,-2.8467504E-2,-1.9995932E-1],"categories":[],"categories_nodes":[],"categories_segments":[],"categories_sizes":[],"default_left":[0,0,0,0,0,0,0,0,0,0,0,0,0,0,0,0,0,0,0,0,0,0,0,0,0],"id":25,"left_children":[1,3,5,7,9,-1,-1,11,13,-1,-1,-1,-1,15,17,19,21,23,-1,-1,-1,-1,-1,-1,-1],"loss_changes":[1.0619779E0,1.2814134E0,1.111426E0,1.9117504E0,7.877463E-1,0E0,0E0,1.0332563E0,1.3144625E0,0E0,0E0,0E0,0E0,1.560421E0,6.6734296E-1,1.2731631E0,1.2921467E0,1.571585E-1,0E0,0E0,0E0,0E0,0E0,0E0,0E0],"parents":[2147483647,0,0,1,1,2,2,3,3,4,4,7,7,8,8,13,13,14,14,15,15,16,16,17,17],"right_children":[2,4,6,8,10,-1,-1,12,14,-1,-1,-1,-1,16,18,20,22,24,-1,-1,-1,-1,-1,-1,-1],"split_conditions":[2.94E2,3.13E2,9.42E2,1.6E1,6.51E2,-2.143067E-1,7.505344E-2,2.43E2,2.2E1,-2.2350305E-1,3.47804E-2,-2.300592E-1,4.71005E-2,2.37E2,2.65E2,4.2E1,1.39E2,2.5E1,5.8500737E-2,-1.5606124E-2,1.4478989E-1,-2.0933928E-1,1.1001002E-1,-2.8467504E-2,-1.9995932E-1],"split_indices":[10318,5066,5162,10385,10356,0,0,5036,10027,0,0,0,0,5031,4870,5143,10131,5071,0,0,0,0,0,0,0],"split_type":[0,0,0,0,0,0,0,0,0,0,0,0,0,0,0,0,0,0,0,0,0,0,0,0,0],"sum_hessian":[4.0707756E1,3.5621902E1,5.0858526E0,3.1596827E1,4.0250745E0,4.0793657E0,1.0064873E0,4.516626E0,2.7080202E1,2.8953733E0,1.1297014E0,3.2352335E0,1.2813922E0,2.2907852E1,4.1723495E0,1.970733E1,3.2005217E0,3.0277693E0,1.14458E0,6.1589317E0,1.3548399E1,2.1995544E0,1.0009671E0,1.0227281E0,2.0050411E0],"tree_param":{"num_deleted":"0","num_feature":"10398","num_nodes":"25","size_leaf_vector":"1"}},{"base_weights":[-1.18338756E-1,2.1504012E-1,-1.8888706E-1,4.8238593E-1,-1.723285E-1,-7.002812E-1,-7.190074E-2,8.695372E-1,-8.272761E-2,-2.425801E-1,-2.2262162E-2,4.554526E-2,-4.8184738E-1,3.2841122E-1,5.5515457E-2,-1.6469076E-1,1.2542601E-1,-5.0305206E-1,1.5487356E-1,-2.3388252E-1,3.8529295E-2,2.4687E-3,-2.022898E-1,3.4398136E-1,-1.4046526E-1,-1.6310786E-1,1.4582062E-1,-2.058681E-1,4.1371673E-2],"categories":[],"categories_nodes":[],"categories_segments":[],"categories_sizes":[],"default_left":[0,0,0,0,0,0,0,0,0,0,0,0,0,0,0,0,0,0,0,0,0,0,0,0,0,0,0,0,0],"id":26,"left_children":[1,3,5,7,-1,9,11,13,15,-1,-1,17,19,-1,-1,-1,-1,21,23,-1,-1,-1,-1,25,27,-1,-1,-1,-1],"loss_changes":[9.776078E-1,1.8443878E0,1.948642E0,1.4045061E0,0E0,3.540914E-1,1.3848408E0,3.6789703E-1,1.0209409E0,0E0,0E0,1.4524106E0,1.2613231E0,0E0,0E0,0E0,0E0,3.5958374E-1,1.1582699E0,0E0,0E0,0E0,0E0,1.8289647E0,1.3811035E0,0E0,0E0,0E0,0E0],"parents":[2147483647,0,0,1,1,2,2,3,3,5,5,6,6,7,7,8,8,11,11,12,12,17,17,18,18,23,23,24,24],"right_children":[2,4,6,8,-1,10,12,14,16,-1,-1,18,20,-1,-1,-1,-1,22,24,-1,-1,-1,-1,26,28,-1,-1,-1,-1],"split_conditions":[4E0,8.7E1,1.3E1,2.6E1,-1.723285E-1,3.19E2,1.57E2,5E0,9E1,-2.425801E-1,-2.2262162E-2,1.1E1,2.78E2,3.2841122E-1,5.5515457E-2,-1.6469076E-1,1.2542601E-1,9E0,8.2E1,-2.3388252E-1,3.8529295E-2,2.4687E-3,-2.022898E-1,1.2E1,3E1,-1.6310786E-1,1.4582062E-1,-2.058681E-1,4.1371673E-2],"split_indices":[10341,5152,5121,10387,0,10346,5145,5131,5087,0,0,10362,10335,0,0,0,0,5147,10204,0,0,0,0,5123,5178,0,0,0,0],"split_type":[0,0,0,0,0,0,0,0,0,0,0,0,0,0,0,0,0,0,0,0,0,0,0,0,0,0,0,0,0],"sum_hessian":[3.883915E1,6.4257727E0,3.2413376E1,5.0907974E0,1.3349752E0,5.1061845E0,2.7307192E1,2.7014072E0,2.38939E0,4.1045094E0,1.0016755E0,2.1917053E1,5.390138E0,1.5817645E0,1.1196427E0,1.1876105E0,1.2017796E0,3.0435517E0,1.8873503E1,3.4361448E0,1.9539934E0,1.0024756E0,2.041076E0,1.1405664E1,7.467838E0,1.1837642E0,1.02219E1,2.0275526E0,5.440285E0],"tree_param":{"num_deleted":"0","num_feature":"10398","num_nodes":"29","size_leaf_vector":"1"}},{"base_weights":[-1.1579075E-1,-3.1919095E-1,-6.1552827E-3,3.1776886E-2,-7.278642E-1,-3.848862E-1,1.4193034E-1,2.6955843E-1,-1.81442E-1,-2.4368979E-1,-4.3943167E-2,7.643145E-2,-6.595758E-1,4.247937E-1,-1.780079E-2,4.8648685E-1,-6.895499E-2,-2.3408028E-1,-1.766466E-2,7.023236E-1,-1.5975839E-1,1.6331732E-1,-1.7416705E-1,2.196037E-1,-8.404796E-3,8.9286834E-1,2.216482E-3,3.0492508E-1,-2.3620942E-1,7.97597E-2,3.0925146E-1,1.445842E-1,-7.349467E-2,-1.7660937E-1,6.2508084E-2],"categories":[],"categories_nodes":[],"categories_segments":[],"categories_sizes":[],"default_left":[0,0,0,0,0,0,0,0,0,0,0,0,0,0,0,0,0,0,0,0,0,0,0,0,0,0,0,0,0,0,0,0,0,0,0],"id":27,"left_children":[1,3,5,7,9,11,13,15,-1,-1,-1,-1,17,19,21,23,-1,-1,-1,25,-1,27,-1,-1,-1,29,-1,31,33,-1,-1,-1,-1,-1,-1],"loss_changes":[8.4147924E-1,1.920313E0,1.4901501E0,1.3851943E0,1.8306398E-1,1.4795617E0,8.7195975E-1,8.235964E-1,0E0,0E0,0E0,0E0,3.5283232E-1,2.219113E0,1.4388771E0,6.3966334E-1,0E0,0E0,0E0,7.6342297E-1,0E0,6.80586E-1,0E0,0E0,0E0,1.2001586E-1,0E0,9.336475E-1,6.520634E-1,0E0,0E0,0E0,0E0,0E0,0E0],"parents":[2147483647,0,0,1,1,2,2,3,3,4,4,5,5,6,6,7,7,12,12,13,13,14,14,15,15,19,19,21,21,25,25,27,27,28,28],"right_children":[2,4,6,8,10,12,14,16,-1,-1,-1,-1,18,20,22,24,-1,-1,-1,26,-1,28,-1,-1,-1,30,-1,32,34,-1,-1,-1,-1,-1,-1],"split_conditions":[1.07E2,6.2E1,6.4E1,1.38E2,2.49E2,1.7E1,3.3E1,9.7E1,-1.81442E-1,-2.4368979E-1,-4.3943167E-2,7.643145E-2,6.49E2,6.8E1,3.2E1,2.6E1,-6.895499E-2,-2.3408028E-1,-1.766466E-2,1.38E2,-1.5975839E-1,2.06E2,-1.7416705E-1,2.196037E-1,-8.404796E-3,1.32E2,2.216482E-3,2.8E1,4.1E1,7.97597E-2,3.0925146E-1,1.445842E-1,-7.349467E-2,-1.7660937E-1,6.2508084E-2],"split_indices":[5180,10379,10379,10396,10267,5185,10352,5138,0,0,0,0,10250,5108,5197,10315,0,0,0,5167,0,10140,0,0,0,10378,0,4905,4899,0,0,0,0,0,0],"split_type":[0,0,0,0,0,0,0,0,0,0,0,0,0,0,0,0,0,0,0,0,0,0,0,0,0,0,0,0,0,0,0,0,0,0,0],"sum_hessian":[3.6822807E1,1.2227138E1,2.459567E1,7.0741315E0,5.1530066E0,6.4642324E0,1.8131437E1,5.5701E0,1.5040317E0,4.1527295E0,1.0002772E0,1.9637786E0,4.500454E0,5.9447026E0,1.2186735E1,3.9013436E0,1.6687561E0,3.498574E0,1.00188E0,4.815146E0,1.1295565E0,9.756486E0,2.4302497E0,2.354837E0,1.5465068E0,3.555452E0,1.2596937E0,7.3781633E0,2.3783224E0,1.1691668E0,2.3862853E0,5.6749187E0,1.7032446E0,1.1457156E0,1.2326068E0],"tree_param":{"num_deleted":"0","num_feature":"10398","num_nodes":"35","size_leaf_vector":"1"}},{"base_weights":[-1.0889121E-1,-6.6522606E-2,-1.6925111E-1,-2.604065E-1,2.9502412E-2,4.5399886E-2,-6.5807945E-1,-1.6283253E-1,1.053268E-1,2.3883915E-1,-1.605679E-1,-2.2589938E-1,-4.234694E-2,1.6965212E-1,-1.2752806E-1,4.9917218E-1,-2.0314528E-1,3.5340875E-1,-5.2637886E-2,2.1027994E-1,2.4378479E-2,-3.4766502E-3,-8.793916E-2,1.7219518E-1,-4.434347E-2,-1.4840023E-1,5.3358182E-2],"categories":[],"categories_nodes":[],"categories_segments":[],"categories_sizes":[],"default_left":[0,0,0,0,0,0,0,0,0,0,0,0,0,0,0,0,0,0,0,0,0,0,0,0,0,0,0],"id":28,"left_children":[1,3,-1,5,7,9,11,-1,13,15,-1,-1,-1,17,-1,19,21,23,25,-1,-1,-1,-1,-1,-1,-1,-1],"loss_changes":[6.501713E-1,6.360282E-1,0E0,1.401717E0,1.0755638E0,9.491211E-1,1.3747978E-1,0E0,8.077685E-1,8.120811E-1,0E0,0E0,0E0,8.332533E-1,0E0,2.951702E-1,4.8318215E-2,1.306258E0,1.0962521E0,0E0,0E0,0E0,0E0,0E0,0E0,0E0,0E0],"parents":[2147483647,0,0,1,1,3,3,4,4,5,5,6,6,8,8,9,9,13,13,15,15,16,16,17,17,18,18],"right_children":[2,4,-1,6,8,10,12,-1,14,16,-1,-1,-1,18,-1,20,22,24,26,-1,-1,-1,-1,-1,-1,-1,-1],"split_conditions":[3.09E2,1.07E2,-1.6925111E-1,6.2E1,9E0,1.38E2,3.37E2,-1.6283253E-1,2.87E2,2.4E1,-1.605679E-1,-2.2589938E-1,-4.234694E-2,1.11E2,-1.2752806E-1,5E0,5.4E1,3.1E1,1.25E2,2.1027994E-1,2.4378479E-2,-3.4766502E-3,-8.793916E-2,1.7219518E-1,-4.434347E-2,-1.4840023E-1,5.3358182E-2],"split_indices":[10170,5180,0,10379,10379,10396,5164,0,10371,5188,0,0,0,10289,0,10321,5185,5079,5090,0,0,0,0,0,0,0,0],"split_type":[0,0,0,0,0,0,0,0,0,0,0,0,0,0,0,0,0,0,0,0,0,0,0,0,0,0,0],"sum_hessian":[3.465151E1,3.2749893E1,1.9016148E0,1.0280565E1,2.2469326E1,6.312305E0,3.9682608E0,1.9082992E0,2.0561028E1,5.1764054E0,1.1358995E0,2.9667983E0,1.0014623E0,1.894382E1,1.6172062E0,3.176203E0,2.0002024E0,1.0047869E1,8.895952E0,1.6853225E0,1.4908804E0,1.000075E0,1.0001273E0,6.8765078E0,3.171361E0,2.6561491E0,6.2398033E0],"tree_param":{"num_deleted":"0","num_feature":"10398","num_nodes":"27","size_leaf_vector":"1"}},{"base_weights":[-1.0571293E-1,-3.4329244E-1,-4.0313866E-2,2.4956453E-1,-2.3310572E-1,1.4300363E-2,-1.534443E-1,-5.8547676E-2,1.535314E-1,1.3366903E-1,-1.5198047E-1,2.8613588E-1,-3.8146082E-1,-2.0481192E-1,1.1124113E-1,-8.276071E-2,3.876025E-1,-2.0515862E-1,7.952087E-2,-1.879284E-1,2.8551015E-1,-2.2159804E-2,1.5102038E-1,5.250245E-2,-1.262042E-1,1.472784E-1,-6.544969E-2],"categories":[],"categories_nodes":[],"categories_segments":[],"categories_sizes":[],"default_left":[0,0,0,0,0,0,0,0,0,0,0,0,0,0,0,0,0,0,0,0,0,0,0,0,0,0,0],"id":29,"left_children":[1,3,5,7,-1,9,-1,-1,-1,11,13,15,17,-1,19,-1,21,-1,-1,23,25,-1,-1,-1,-1,-1,-1],"loss_changes":[5.1904416E-1,2.0633097E0,7.285083E-1,5.4630923E-1,0E0,5.381337E-1,0E0,0E0,0E0,1.3436778E0,1.6642952E0,8.311423E-1,9.669156E-1,0E0,4.947376E-1,0E0,6.3427114E-1,0E0,0E0,3.876303E-1,7.013E-1,0E0,0E0,0E0,0E0,0E0,0E0],"parents":[2147483647,0,0,1,1,2,2,3,3,5,5,9,9,10,10,11,11,12,12,14,14,16,16,19,19,20,20],"right_children":[2,4,6,8,-1,10,-1,-1,-1,12,14,16,18,-1,20,-1,22,-1,-1,24,26,-1,-1,-1,-1,-1,-1],"split_conditions":[2.6E1,1.6E1,6.44E2,1.45E2,-2.3310572E-1,1.44E2,-1.534443E-1,-5.8547676E-2,1.535314E-1,1E1,1.48E2,5E0,6.5E1,-2.0481192E-1,2.3E1,-8.276071E-2,1.1E1,-2.0515862E-1,7.952087E-2,3E0,1.92E2,-2.2159804E-2,1.5102038E-1,5.250245E-2,-1.262042E-1,1.472784E-1,-6.544969E-2],"split_indices":[10392,5193,5154,5054,0,10336,0,0,0,4922,5137,10389,10179,0,4958,0,5183,0,0,10230,10168,0,0,0,0,0,0],"split_type":[0,0,0,0,0,0,0,0,0,0,0,0,0,0,0,0,0,0,0,0,0,0,0,0,0,0,0],"sum_hessian":[3.329666E1,6.2700043E0,2.7026655E1,2.8284397E0,3.4415646E0,2.5088259E1,1.9383974E0,1.1439375E0,1.6845021E0,1.4718417E1,1.0369842E1,1.1700012E1,3.0184045E0,2.9096153E0,7.460226E0,1.5264534E0,1.0173559E1,2.0171723E0,1.001232E0,2.717199E0,4.743027E0,2.1134367E0,8.0601225E0,1.158622E0,1.5585771E0,3.3869936E0,1.3560333E0],"tree_param":{"num_deleted":"0","num_feature":"10398","num_nodes":"27","size_leaf_vector":"1"}},{"base_weights":[-1.0244585E-1,-6.799901E-2,-1.6415347E-1,-1.7557894E-1,6.941046E-2,1.4273806E-1,-3.9937457E-1,-1.758706E-1,1.8424208E-1,3.6876407E-1,-1.4964089E-1,-1.0852144E-2,-6.9315755E-1,5.005908E-1,-2.560899E-2,-6.121968E-2,5.3603446E-1,-1.4250831E-1,3.0711505E-1,-2.4286434E-1,-1.4661091E-2,2.2234915E-1,-6.6165276E-2,-4.5619208E-1,1.7132235E-1,2.0206043E-1,-7.2035086E-3,-2.7784323E-2,1.7561011E-1,-3.2369122E-2,-1.7235711E-1,9.6479036E-2,-7.4289784E-2],"categories":[],"categories_nodes":[],"categories_segments":[],"categories_sizes":[],"default_left":[0,0,0,0,0,0,0,0,0,0,0,0,0,0,0,0,0,0,0,0,0,0,0,0,0,0,0,0,0,0,0,0,0],"id":30,"left_children":[1,3,-1,5,7,9,11,-1,13,15,-1,17,19,21,23,-1,25,-1,27,-1,-1,-1,-1,29,31,-1,-1,-1,-1,-1,-1,-1,-1],"loss_changes":[4.6308655E-1,4.7711685E-1,0E0,1.3338563E0,1.2017777E0,1.3637011E0,1.2238041E0,0E0,8.840251E-1,7.409461E-1,0E0,9.81384E-1,4.198866E-1,1.0798775E0,8.2783115E-1,0E0,4.3026078E-1,0E0,4.954285E-1,0E0,0E0,0E0,0E0,6.361401E-2,5.073403E-1,0E0,0E0,0E0,0E0,0E0,0E0,0E0,0E0],"parents":[2147483647,0,0,1,1,3,3,4,4,5,5,6,6,8,8,9,9,11,11,12,12,13,13,14,14,16,16,18,18,23,23,24,24],"right_children":[2,4,-1,6,8,10,12,-1,14,16,-1,18,20,22,24,-1,26,-1,28,-1,-1,-1,-1,30,32,-1,-1,-1,-1,-1,-1,-1,-1],"split_conditions":[5.65E2,4.9E1,-1.6415347E-1,8E0,1.7E1,6.7E1,1E1,-1.758706E-1,3.5E1,1.9E1,-1.4964089E-1,5.2E1,1.1E2,4.1E1,1.3E2,-6.121968E-2,9.3E1,-1.4250831E-1,2.33E2,-2.4286434E-1,-1.4661091E-2,2.2234915E-1,-6.6165276E-2,1.7E1,8E0,2.0206043E-1,-7.2035086E-3,-2.7784323E-2,1.7561011E-1,-3.2369122E-2,-1.7235711E-1,9.6479036E-2,-7.4289784E-2],"split_indices":[10244,10219,0,5108,5075,10364,5052,0,10313,5170,0,10289,10138,5192,5003,0,10352,0,10379,0,0,0,0,10145,9982,0,0,0,0,0,0,0,0],"split_type":[0,0,0,0,0,0,0,0,0,0,0,0,0,0,0,0,0,0,0,0,0,0,0,0,0,0,0,0,0,0,0,0,0],"sum_hessian":[3.1657084E1,3.0451365E1,1.205718E0,1.6923738E1,1.3527627E1,7.136001E0,9.787738E0,1.4043187E0,1.2123308E1,5.5912848E0,1.5447164E0,4.660825E0,5.1269126E0,4.282308E0,7.841E0,1.2139723E0,4.377312E0,1.6939734E0,2.9668515E0,4.1251965E0,1.0017161E0,3.190269E0,1.0920389E0,2.0475671E0,5.793433E0,3.35176E0,1.0255524E0,1.4914418E0,1.4754096E0,1.0040591E0,1.0435082E0,4.4350233E0,1.3584098E0],"tree_param":{"num_deleted":"0","num_feature":"10398","num_nodes":"33","size_leaf_vector":"1"}},{"base_weights":[-1.03089936E-1,-2.9360193E-1,-3.1629246E-2,2.698781E-1,-6.637541E-1,-1.51395E-1,4.454638E-2,-1.4160861E-2,1.5029347E-1,-2.3105223E-1,-3.202689E-2,1.7849258E-1,-1.6783859E-1,2.74917E-1,-1.1871293E-1,-1.9607522E-1,5.8714338E-2,3.4926262E-1,-7.9169795E-2,-8.695854E-2,1.03624135E-1,-4.3497223E-2,1.2648092E-1,-8.340523E-2,1.1047216E-1],"categories":[],"categories_nodes":[],"categories_segments":[],"categories_sizes":[],"default_left":[0,0,0,0,0,0,0,0,0,0,0,0,0,0,0,0,0,0,0,0,0,0,0,0,0],"id":31,"left_children":[1,3,5,7,9,-1,11,-1,-1,-1,-1,13,15,17,-1,-1,19,21,-1,23,-1,-1,-1,-1,-1],"loss_changes":[4.1089717E-1,1.9099305E0,8.7160915E-1,3.168241E-1,2.3178434E-1,0E0,6.335083E-1,0E0,0E0,0E0,0E0,8.559693E-1,9.980676E-1,5.7867235E-1,0E0,0E0,3.167325E-1,4.580965E-1,0E0,5.677264E-1,0E0,0E0,0E0,0E0,0E0],"parents":[2147483647,0,0,1,1,2,2,3,3,4,4,6,6,11,11,12,12,13,13,16,16,17,17,19,19],"right_children":[2,4,6,8,10,-1,12,-1,-1,-1,-1,14,16,18,-1,-1,20,22,-1,24,-1,-1,-1,-1,-1],"split_conditions":[1.9E1,4E0,7E0,3.74E2,3.79E2,-1.51395E-1,6E1,-1.4160861E-2,1.5029347E-1,-2.3105223E-1,-3.202689E-2,1.42E2,1.72E2,3.7E2,-1.1871293E-1,-1.9607522E-1,6.63E2,5E0,-7.9169795E-2,1.87E2,1.03624135E-1,-4.3497223E-2,1.2648092E-1,-8.340523E-2,1.1047216E-1],"split_indices":[5121,10322,10322,5172,5146,0,10222,0,0,0,0,4978,5151,10318,0,0,10038,5063,0,5051,0,0,0,0,0],"split_type":[0,0,0,0,0,0,0,0,0,0,0,0,0,0,0,0,0,0,0,0,0,0,0,0,0],"sum_hessian":[2.9863811E1,7.2982697E0,2.2565542E1,3.0009081E0,4.297362E0,2.3497427E0,2.02158E1,1.60058E0,1.4003283E0,3.286684E0,1.0106776E0,1.2495048E1,7.720752E0,1.1144754E1,1.3502928E0,1.8561435E0,5.8646083E0,1.0102599E1,1.0421554E0,4.3506966E0,1.5139116E0,1.1616368E0,8.940963E0,3.3386278E0,1.0120687E0],"tree_param":{"num_deleted":"0","num_feature":"10398","num_nodes":"25","size_leaf_vector":"1"}},{"base_weights":[-9.6452914E-2,-1.9119292E-1,3.6793616E-2,8.277367E-2,-4.8545334E-1,-1.6059622E-1,1.9056545E-1,-1.4737877E-1,3.567883E-1,2.447824E-3,-6.41267E-1,4.0541774E-1,-7.657475E-2,1.9003469E-1,-1.9052443E-1,-6.4865515E-2,1.7403603E-1,8.72694E-2,-8.482722E-2,-2.2901212E-1,-1.546559E-2,5.9189975E-1,-3.638302E-2,-1.5851873E-1,1.4170927E-1,1.3579871E-1,-5.1572908E-2,2.102711E-1,2.6559068E-2,-5.8449928E-2,3.2674265E-1,1.3512994E-1,5.6855334E-3],"categories":[],"categories_nodes":[],"categories_segments":[],"categories_sizes":[],"default_left":[0,0,0,0,0,0,0,0,0,0,0,0,0,0,0,0,0,0,0,0,0,0,0,0,0,0,0,0,0,0,0,0,0],"id":32,"left_children":[1,3,5,7,9,-1,11,13,15,17,19,21,23,25,-1,-1,-1,-1,-1,-1,-1,27,-1,-1,29,-1,-1,-1,-1,-1,31,-1,-1],"loss_changes":[3.7995535E-1,1.445078E0,1.2557592E0,6.7559457E-1,6.5138936E-1,0E0,6.6663086E-1,1.1206758E0,7.3995036E-1,3.3442235E-1,4.274454E-1,6.902113E-1,6.4467186E-1,4.924093E-1,0E0,0E0,0E0,0E0,0E0,0E0,0E0,2.0242226E-1,0E0,0E0,3.5533598E-1,0E0,0E0,0E0,0E0,0E0,1.20744854E-1,0E0,0E0],"parents":[2147483647,0,0,1,1,2,2,3,3,4,4,6,6,7,7,8,8,9,9,10,10,11,11,12,12,13,13,21,21,24,24,30,30],"right_children":[2,4,6,8,10,-1,12,14,16,18,20,22,24,26,-1,-1,-1,-1,-1,-1,-1,28,-1,-1,30,-1,-1,-1,-1,-1,32,-1,-1],"split_conditions":[1.03E2,3E0,1.9E1,2.22E2,1E1,-1.6059622E-1,3.6E1,1.6E1,1.3E1,1.3E1,6.08E2,9.3E1,1.7E2,1E1,-1.9052443E-1,-6.4865515E-2,1.7403603E-1,8.72694E-2,-8.482722E-2,-2.2901212E-1,-1.546559E-2,1.42E2,-3.638302E-2,-1.5851873E-1,2.07E2,1.3579871E-1,-5.1572908E-2,2.102711E-1,2.6559068E-2,-5.8449928E-2,1E1,1.3512994E-1,5.6855334E-3],"split_indices":[5003,10221,10223,5090,10354,0,10186,10330,10267,5164,5012,5126,5130,5188,0,0,0,0,0,0,0,4978,0,0,10212,0,0,0,0,0,4922,0,0],"split_type":[0,0,0,0,0,0,0,0,0,0,0,0,0,0,0,0,0,0,0,0,0,0,0,0,0,0,0,0,0,0,0,0,0],"sum_hessian":[2.8541134E1,1.6426674E1,1.211446E1,8.878857E0,7.5478163E0,2.0406973E0,1.0073762E1,5.076834E0,3.8020227E0,2.06523E0,5.4825864E0,5.296409E0,4.7773533E0,3.361531E0,1.7153033E0,1.0752033E0,2.7268195E0,1.01685E0,1.0483798E0,4.2981343E0,1.1844522E0,3.8200698E0,1.4763393E0,1.0934228E0,3.6839304E0,1.8027854E0,1.5587456E0,2.8175175E0,1.0025523E0,1.2881166E0,2.3958137E0,1.3784311E0,1.0173827E0],"tree_param":{"num_deleted":"0","num_feature":"10398","num_nodes":"33","size_leaf_vector":"1"}},{"base_weights":[-8.7558754E-2,-1.8369626E-1,3.443318E-2,-4.734643E-2,-5.624355E-1,2.2375248E-1,-2.8161076E-1,7.297681E-2,-3.6501673E-1,-2.0239024E-1,-3.3105478E-2,4.9394757E-1,-1.0611085E-1,-1.9406982E-1,7.982236E-2,1.9761921E-1,-8.983694E-2,-1.9015236E-1,5.104838E-2,1.5056216E-2,1.788628E-1,-3.308318E-1,1.0416155E-1,-9.92058E-2,1.11285105E-1,-1.3019569E-1,3.7950206E-1,-1.3467015E-1,-2.197709E-2,-1.7000617E-1,9.93443E-2,-2.4963466E-2,1.5451616E-1],"categories":[],"categories_nodes":[],"categories_segments":[],"categories_sizes":[],"default_left":[0,0,0,0,0,0,0,0,0,0,0,0,0,0,0,0,0,0,0,0,0,0,0,0,0,0,0,0,0,0,0,0,0],"id":33,"left_children":[1,3,5,7,9,11,13,15,17,-1,-1,19,21,-1,23,25,-1,-1,-1,-1,-1,27,-1,-1,-1,29,31,-1,-1,-1,-1,-1,-1],"loss_changes":[3.3182585E-1,7.830893E-1,8.452943E-1,5.090542E-1,1.3142228E-1,8.308263E-1,7.567543E-1,5.227966E-1,6.306472E-1,0E0,0E0,1.9597399E-1,5.9933704E-1,0E0,5.4987884E-1,5.314912E-1,0E0,0E0,0E0,0E0,0E0,7.938388E-2,0E0,0E0,0E0,9.185958E-1,3.8504207E-1,0E0,0E0,0E0,0E0,0E0,0E0],"parents":[2147483647,0,0,1,1,2,2,3,3,4,4,5,5,6,6,7,7,8,8,11,11,12,12,14,14,15,15,21,21,25,25,26,26],"right_children":[2,4,6,8,10,12,14,16,18,-1,-1,20,22,-1,24,26,-1,-1,-1,-1,-1,28,-1,-1,-1,30,32,-1,-1,-1,-1,-1,-1],"split_conditions":[4.9E1,2.7E1,3.3E1,8.6E1,5.02E2,9.1E1,1.12E2,1.05E2,2.73E2,-2.0239024E-1,-3.3105478E-2,3.7E1,1.674E3,-1.9406982E-1,4.9E1,1.2E1,-8.983694E-2,-1.9015236E-1,5.104838E-2,1.5056216E-2,1.788628E-1,9.32E2,1.0416155E-1,-9.92058E-2,1.11285105E-1,5.71E2,2.4E1,-1.3467015E-1,-2.197709E-2,-1.7000617E-1,9.93443E-2,-2.4963466E-2,1.5451616E-1],"split_indices":[10219,4964,5144,5122,5157,10222,10268,10341,10329,0,0,5160,10047,0,4998,5078,0,0,0,0,0,10122,0,0,0,10395,10335,0,0,0,0,0,0],"split_type":[0,0,0,0,0,0,0,0,0,0,0,0,0,0,0,0,0,0,0,0,0,0,0,0,0,0,0,0,0,0,0,0,0],"sum_hessian":[2.6754147E1,1.4679751E1,1.2074395E1,1.1621065E1,3.058686E0,7.7337065E0,4.340689E0,8.987258E0,2.633808E0,2.0561202E0,1.0025657E0,3.977916E0,3.7557905E0,1.7660166E0,2.5746725E0,7.0853753E0,1.9018823E0,1.6304587E0,1.0033491E0,1.0242037E0,2.9537122E0,2.6916587E0,1.0641315E0,1.011922E0,1.5627505E0,2.6297848E0,4.4555907E0,1.3363144E0,1.3553443E0,1.2339572E0,1.3958277E0,1.0970106E0,3.3585799E0],"tree_param":{"num_deleted":"0","num_feature":"10398","num_nodes":"33","size_leaf_vector":"1"}},{"base_weights":[-8.658417E-2,-1.6156806E-1,5.3589623E-2,3.1523656E-3,-4.3722525E-1,-1.6043365E-1,1.9125201E-1,1.07420415E-1,-1.1489552E-1,-2.0747118E-1,-2.5509931E-2,3.2245305E-1,-6.083813E-2,2.1329056E-1,-7.521828E-2,1.0135413E-1,-1.047646E-1,4.902348E-1,-2.2646774E-2,-1.5399812E-1,4.016151E-1,1.857584E-1,3.1810854E-2,5.916885E-2,-1.5583706E-1,-1.2373642E-2,1.5538016E-1],"categories":[],"categories_nodes":[],"categories_segments":[],"categories_sizes":[],"default_left":[0,0,0,0,0,0,0,0,0,0,0,0,0,0,0,0,0,0,0,0,0,0,0,0,0,0,0],"id":34,"left_children":[1,3,5,7,9,-1,11,13,-1,-1,15,17,-1,19,-1,-1,-1,21,-1,23,25,-1,-1,-1,-1,-1,-1],"loss_changes":[2.847103E-1,7.896194E-1,9.044646E-1,5.186154E-1,6.630707E-1,0E0,5.1841563E-1,4.3715215E-1,0E0,0E0,5.320757E-1,5.017061E-1,0E0,6.3944066E-1,0E0,0E0,0E0,1.8352175E-1,0E0,5.5853707E-1,3.199938E-1,0E0,0E0,0E0,0E0,0E0,0E0],"parents":[2147483647,0,0,1,1,2,2,3,3,4,4,6,6,7,7,10,10,11,11,13,13,17,17,19,19,20,20],"right_children":[2,4,6,8,10,-1,12,14,-1,-1,16,18,-1,20,-1,-1,-1,22,-1,24,26,-1,-1,-1,-1,-1,-1],"split_conditions":[1.3E2,2.9E1,1.7E1,5.9E1,1.57E2,-1.6043365E-1,2.9E1,6.6E1,-1.1489552E-1,-2.0747118E-1,5E0,1.2E2,-6.083813E-2,3.1E1,-7.521828E-2,1.0135413E-1,-1.047646E-1,5.2E1,-2.2646774E-2,2.6E1,1.4E1,1.857584E-1,3.1810854E-2,5.916885E-2,-1.5583706E-1,-1.2373642E-2,1.5538016E-1],"split_indices":[5000,10278,10225,5040,5040,0,10093,10368,0,0,10195,10382,0,5161,0,0,0,5043,0,10389,10374,0,0,0,0,0,0],"split_type":[0,0,0,0,0,0,0,0,0,0,0,0,0,0,0,0,0,0,0,0,0,0,0,0,0,0,0],"sum_hessian":[2.5263708E1,1.6359703E1,8.904006E0,1.0859259E1,5.500444E0,1.1413156E0,7.7626905E0,9.118747E0,1.740512E0,2.9798515E0,2.5205925E0,5.9599566E0,1.8027341E0,7.3503985E0,1.768348E0,1.1669794E0,1.353613E0,4.0292196E0,1.9307371E0,2.5531917E0,4.797207E0,2.5587115E0,1.4705079E0,1.5366771E0,1.0165145E0,1.1321559E0,3.665051E0],"tree_param":{"num_deleted":"0","num_feature":"10398","num_nodes":"27","size_leaf_vector":"1"}},{"base_weights":[-8.215399E-2,-1.6405834E-2,-2.4915066E-1,9.6626796E-2,-4.2236817E-1,-2.0074835E-1,1.7736997E-1,1.5633036E-1,-8.918992E-2,-1.8456784E-1,2.8510962E-2,-6.9048665E-2,1.178136E-1,2.188682E-1,-1.09731436E-1,2.7368146E-1,-4.9095944E-2,-9.920555E-2,3.9348308E-2,1.0621245E-1,-1.713838E-2],"categories":[],"categories_nodes":[],"categories_segments":[],"categories_sizes":[],"default_left":[0,0,0,0,0,0,0,0,0,0,0,0,0,0,0,0,0,0,0,0,0],"id":35,"left_children":[1,3,5,7,9,-1,11,13,-1,-1,-1,-1,-1,15,17,19,-1,-1,-1,-1,-1],"loss_changes":[2.7152467E-1,9.163984E-1,1.3763745E0,4.166497E-1,4.9173176E-1,0E0,4.654476E-1,2.62341E-1,0E0,0E0,0E0,0E0,0E0,2.9495478E-1,2.2391686E-1,3.0759907E-1,0E0,0E0,0E0,0E0,0E0],"parents":[2147483647,0,0,1,1,2,2,3,3,4,4,6,6,7,7,13,13,14,14,15,15],"right_children":[2,4,6,8,10,-1,12,14,-1,-1,-1,-1,-1,16,18,20,-1,-1,-1,-1,-1],"split_conditions":[1.72E2,1.72E2,1.71E2,2.03E2,2.68E2,-2.0074835E-1,5E1,2.07E2,-8.918992E-2,-1.8456784E-1,2.8510962E-2,-6.9048665E-2,1.178136E-1,2.45E2,1.84E2,8.9E1,-4.9095944E-2,-9.920555E-2,3.9348308E-2,1.0621245E-1,-1.713838E-2],"split_indices":[10384,5185,5185,10188,5097,0,5161,5015,0,0,0,0,0,10377,10218,10161,0,0,0,0,0],"split_type":[0,0,0,0,0,0,0,0,0,0,0,0,0,0,0,0,0,0,0,0,0],"sum_hessian":[2.4101925E1,1.8081364E1,6.020562E0,1.4739426E1,3.3419368E0,2.7468023E0,3.2737598E0,1.3323294E1,1.4161325E0,2.2967737E0,1.0451632E0,1.1080214E0,2.1657386E0,1.0931275E1,2.3920183E0,9.810077E0,1.1211988E0,1.0532217E0,1.3387966E0,7.8362675E0,1.9738089E0],"tree_param":{"num_deleted":"0","num_feature":"10398","num_nodes":"21","size_leaf_vector":"1"}},{"base_weights":[-8.076382E-2,-2.054141E-1,1.5702786E-2,6.3805715E-3,-1.7888227E-1,-1.5866677E-1,1.0016678E-1,-1.9783111E-1,1.814701E-1,-1.9286287E-1,1.7419423E-1,-1.6557504E-1,3.9319705E-2,-5.520561E-2,3.9965016E-1,-1.3955958E-1,6.045497E-2,2.623307E-1,-5.2147925E-2,3.8662333E-2,1.4398147E-1,3.6761388E-1,-3.578724E-2,1.316488E-1,-1.4669958E-2],"categories":[],"categories_nodes":[],"categories_segments":[],"categories_sizes":[],"default_left":[0,0,0,0,0,0,0,0,0,0,0,0,0,0,0,0,0,0,0,0,0,0,0,0,0],"id":36,"left_children":[1,3,5,7,-1,-1,9,11,13,15,17,-1,-1,-1,19,-1,-1,21,-1,-1,-1,23,-1,-1,-1],"loss_changes":[2.943186E-1,8.8396823E-1,7.234431E-1,3.17836E-1,0E0,0E0,3.2556224E-1,5.5194443E-1,4.536621E-1,4.362616E-1,3.9130184E-1,0E0,0E0,0E0,9.8955035E-3,0E0,0E0,4.21188E-1,0E0,0E0,0E0,2.470628E-1,0E0,0E0,0E0],"parents":[2147483647,0,0,1,1,2,2,3,3,6,6,7,7,8,8,9,9,10,10,14,14,17,17,21,21],"right_children":[2,4,6,8,-1,-1,10,12,14,16,18,-1,-1,-1,20,-1,-1,22,-1,-1,-1,24,-1,-1,-1],"split_conditions":[2.2E1,2.2E1,6E0,1.11E2,-1.7888227E-1,-1.5866677E-1,6E0,5.71E2,3.4E1,4E1,2.2E1,-1.6557504E-1,3.9319705E-2,-5.520561E-2,6.8E1,-1.3955958E-1,6.045497E-2,2.04E2,-5.2147925E-2,3.8662333E-2,1.4398147E-1,1.18E2,-3.578724E-2,1.316488E-1,-1.4669958E-2],"split_indices":[10238,5064,5064,10302,0,0,5031,10395,5097,10146,10012,0,0,0,5135,0,0,10244,0,0,0,5187,0,0,0],"split_type":[0,0,0,0,0,0,0,0,0,0,0,0,0,0,0,0,0,0,0,0,0,0,0,0,0],"sum_hessian":[2.3208145E1,9.632296E0,1.3575849E1,6.885135E0,2.7471607E0,1.1163478E0,1.2459501E1,3.1182961E0,3.7668393E0,2.1890588E0,1.0270443E1,1.1751074E0,1.9431888E0,1.4666032E0,2.300236E0,1.1886644E0,1.0003943E0,8.391508E0,1.8789344E0,1.1218586E0,1.1783773E0,6.6057844E0,1.7857237E0,5.5954924E0,1.0102922E0],"tree_param":{"num_deleted":"0","num_feature":"10398","num_nodes":"25","size_leaf_vector":"1"}},{"base_weights":[-7.843E-2,-1.8498182E-1,2.8505586E-2,2.5370507E-2,-1.9676563E-1,-1.1901108E-1,1.1556122E-1,2.0221022E-1,-3.3843774E-1,2.7550176E-1,-2.2202749E-2,-5.0747E-2,3.6378416E-1,-1.7364451E-1,3.4007058E-2,4.1242632E-1,-2.7288867E-2,-1.2703942E-1,1.2702714E-1,-2.0575497E-2,4.941079E-1,1.6849613E-1,-4.6670996E-3,-1.1678176E-1,3.3888012E-1,4.4798564E-2,1.8427978E-1,-1.0716854E-1,4.563781E-2,1.4437771E-1,1.1945878E-3],"categories":[],"categories_nodes":[],"categories_segments":[],"categories_sizes":[],"default_left":[0,0,0,0,0,0,0,0,0,0,0,0,0,0,0,0,0,0,0,0,0,0,0,0,0,0,0,0,0,0,0],"id":37,"left_children":[1,3,5,7,-1,-1,9,11,13,15,17,-1,19,-1,-1,21,-1,-1,23,-1,25,-1,-1,27,29,-1,-1,-1,-1,-1,-1],"loss_changes":[2.7047867E-1,1.1847255E0,5.0793695E-1,6.5478337E-1,0E0,0E0,2.5149435E-1,4.6708715E-1,4.2997572E-1,2.9984316E-1,4.6746507E-1,0E0,3.1715626E-1,0E0,0E0,2.6335013E-1,0E0,0E0,3.3940488E-1,0E0,7.335037E-2,0E0,0E0,2.769343E-1,1.584045E-1,0E0,0E0,0E0,0E0,0E0,0E0],"parents":[2147483647,0,0,1,1,2,2,3,3,6,6,7,7,8,8,9,9,10,10,12,12,15,15,18,18,20,20,23,23,24,24],"right_children":[2,4,6,8,-1,-1,10,12,14,16,18,-1,20,-1,-1,22,-1,-1,24,-1,26,-1,-1,28,30,-1,-1,-1,-1,-1,-1],"split_conditions":[9.6E1,1.29E2,1.6E1,3E1,-1.9676563E-1,-1.1901108E-1,1.5E1,1.21E2,2.17E2,6.2E1,1.18E2,-5.0747E-2,1.7E1,-1.7364451E-1,3.4007058E-2,4.4E1,-2.7288867E-2,-1.2703942E-1,4.9E1,-2.0575497E-2,8.1E1,1.6849613E-1,-4.6670996E-3,1.3E1,2E0,4.4798564E-2,1.8427978E-1,-1.0716854E-1,4.563781E-2,1.4437771E-1,1.1945878E-3],"split_indices":[5114,10384,10274,10243,0,0,10190,5180,5007,5138,5003,0,10384,0,0,10329,0,0,10149,0,5160,0,0,4856,4810,0,0,0,0,0,0],"split_type":[0,0,0,0,0,0,0,0,0,0,0,0,0,0,0,0,0,0,0,0,0,0,0,0,0,0,0,0,0,0,0],"sum_hessian":[2.2275536E1,1.0792212E1,1.1483324E1,8.1138735E0,2.6783383E0,1.3470378E0,1.0136287E1,5.758816E0,2.3550575E0,4.2279415E0,5.9083447E0,1.7316966E0,4.027119E0,1.3536836E0,1.0013738E0,2.9866145E0,1.2413272E0,1.1034985E0,4.804847E0,1.0424302E0,2.984689E0,1.9828992E0,1.0037152E0,2.4425838E0,2.3622627E0,1.3509796E0,1.6337095E0,1.1161366E0,1.3264472E0,1.3509065E0,1.0113562E0],"tree_param":{"num_deleted":"0","num_feature":"10398","num_nodes":"31","size_leaf_vector":"1"}},{"base_weights":[-6.988434E-2,-1.4637469E-1,5.8589097E-2,-4.1967314E-2,-1.483533E-1,1.9800994E-1,-1.9716096E-1,-2.2293037E-1,1.3741715E-1,3.234661E-1,-3.683527E-2,-1.4315557E-1,5.89648E-2,-1.5870246E-1,9.1227844E-2,-7.278691E-2,3.1378534E-1,1.0449104E-2,1.35538E-1,-6.579494E-2,8.7605305E-2,4.5244238E-1,-2.4058709E-2,1.647349E-1,3.837366E-2],"categories":[],"categories_nodes":[],"categories_segments":[],"categories_sizes":[],"default_left":[0,0,0,0,0,0,0,0,0,0,0,0,0,0,0,0,0,0,0,0,0,0,0,0,0],"id":38,"left_children":[1,3,5,7,-1,9,11,13,15,17,-1,-1,-1,-1,19,-1,21,-1,-1,-1,-1,23,-1,-1,-1],"loss_changes":[2.2612318E-1,4.9400777E-1,3.5908628E-1,4.197692E-1,0E0,2.935823E-1,4.9816114E-1,6.587403E-1,5.210979E-1,1.624139E-1,0E0,0E0,0E0,0E0,3.1258506E-1,0E0,3.078072E-1,0E0,0E0,0E0,0E0,4.982972E-2,0E0,0E0,0E0],"parents":[2147483647,0,0,1,1,2,2,3,3,5,5,6,6,7,7,8,8,9,9,14,14,16,16,21,21],"right_children":[2,4,6,8,-1,10,12,14,16,18,-1,-1,-1,-1,20,-1,22,-1,-1,-1,-1,24,-1,-1,-1],"split_conditions":[7.6E1,1E1,3.3E1,1.11E2,-1.483533E-1,1.8E1,1.98E2,3.93E2,5.7E1,6.3E1,-3.683527E-2,-1.4315557E-1,5.89648E-2,-1.5870246E-1,5.97E2,-7.278691E-2,1.11E2,1.0449104E-2,1.35538E-1,-6.579494E-2,8.7605305E-2,5E0,-2.4058709E-2,1.647349E-1,3.837366E-2],"split_indices":[10219,4893,5144,5090,0,10078,4998,10397,10289,5070,0,0,0,0,5198,0,5097,0,0,0,0,10262,0,0,0],"split_type":[0,0,0,0,0,0,0,0,0,0,0,0,0,0,0,0,0,0,0,0,0,0,0,0,0],"sum_hessian":[2.1137749E1,1.3162022E1,7.975726E0,1.0987406E1,2.1746156E0,5.307913E0,2.6678135E0,5.3487926E0,5.6386137E0,3.80969E0,1.4982225E0,1.4350915E0,1.2327222E0,2.3628376E0,2.9859548E0,1.6682302E0,3.9703834E0,1.5637946E0,2.2458956E0,1.1362877E0,1.8496671E0,2.8270502E0,1.1433333E0,1.6449909E0,1.1820592E0],"tree_param":{"num_deleted":"0","num_feature":"10398","num_nodes":"25","size_leaf_vector":"1"}},{"base_weights":[-6.0284615E-2,-1.5195097E-1,4.4137854E-2,4.487583E-2,-4.3009868E-1,-2.8237736E-1,2.5604525E-1,-1.4019535E-1,2.2781064E-1,-1.836786E-1,2.4310198E-2,6.2683195E-2,-1.8189494E-1,4.023387E-1,-3.734884E-2,-1.1177005E-1,3.020234E-2,-3.844014E-2,3.9120424E-1,-5.6913886E-2,8.134632E-2,1.3583574E-2,1.4840466E-1,1.4129741E-1,3.5882413E-2],"categories":[],"categories_nodes":[],"categories_segments":[],"categories_sizes":[],"default_left":[0,0,0,0,0,0,0,0,0,0,0,0,0,0,0,0,0,0,0,0,0,0,0,0,0],"id":39,"left_children":[1,3,5,7,9,11,13,15,17,-1,-1,19,-1,21,-1,-1,-1,-1,23,-1,-1,-1,-1,-1,-1],"loss_changes":[2.1046862E-1,6.522354E-1,8.144523E-1,2.9180828E-1,5.044854E-1,5.6303376E-1,4.414039E-1,2.857205E-1,2.9678595E-1,0E0,0E0,2.1880001E-1,0E0,1.528002E-1,0E0,0E0,0E0,0E0,1.2001812E-2,0E0,0E0,0E0,0E0,0E0,0E0],"parents":[2147483647,0,0,1,1,2,2,3,3,4,4,5,5,6,6,7,7,8,8,11,11,13,13,18,18],"right_children":[2,4,6,8,10,12,14,16,18,-1,-1,20,-1,22,-1,-1,-1,-1,24,-1,-1,-1,-1,-1,-1],"split_conditions":[1.4E1,1E1,3.3E1,1.18E2,3.14E2,5E0,6.2E1,4.1E1,8E0,-1.836786E-1,2.4310198E-2,1.54E2,-1.8189494E-1,1.5E1,-3.734884E-2,-1.1177005E-1,3.020234E-2,-3.844014E-2,3.8E1,-5.6913886E-2,8.134632E-2,1.3583574E-2,1.4840466E-1,1.4129741E-1,3.5882413E-2],"split_indices":[4965,10247,10239,5127,5095,5175,4896,10393,10258,0,0,10153,0,10209,0,0,0,0,5144,0,0,0,0,0,0],"split_type":[0,0,0,0,0,0,0,0,0,0,0,0,0,0,0,0,0,0,0,0,0,0,0,0,0],"sum_hessian":[2.0287216E1,1.0561096E1,9.726121E0,6.6757617E0,3.8853343E0,3.6970348E0,6.0290866E0,3.4346414E0,3.24112E0,2.718597E0,1.1667376E0,2.1806736E0,1.5163611E0,4.3135333E0,1.7155533E0,1.4698727E0,1.9647688E0,1.0876117E0,2.1535084E0,1.0271196E0,1.153554E0,1.1925772E0,3.1209557E0,1.097063E0,1.0564456E0],"tree_param":{"num_deleted":"0","num_feature":"10398","num_nodes":"25","size_leaf_vector":"1"}},{"base_weights":[-5.362492E-2,-1.0159724E-1,1.4815281E-1,-2.1601388E-2,-1.3682409E-1,-4.982756E-2,1.2687868E-1,-1.4964105E-1,1.2004125E-1,3.0028762E-2,-1.4927335E-1,-1.7369859E-1,3.0650464E-1,-1.411467E-1,2.1749933E-1,-1.3830552E-1,6.522356E-2,-1.0326503E-2,4.018659E-1,-1.2079294E-1,3.3605214E-2,-3.1836936E-3,9.906204E-2,1.602675E-1,4.5743543E-3],"categories":[],"categories_nodes":[],"categories_segments":[],"categories_sizes":[],"default_left":[0,0,0,0,0,0,0,0,0,0,0,0,0,0,0,0,0,0,0,0,0,0,0,0,0],"id":40,"left_children":[1,3,5,7,-1,-1,-1,9,11,13,-1,15,17,19,21,-1,-1,-1,23,-1,-1,-1,-1,-1,-1],"loss_changes":[2.1177714E-1,4.725842E-1,4.424468E-1,2.8873488E-1,0E0,0E0,0E0,5.3297746E-1,4.7188285E-1,2.3633073E-1,0E0,5.054764E-1,1.7759782E-1,3.0699354E-1,9.225288E-2,0E0,0E0,0E0,1.9731605E-1,0E0,0E0,0E0,0E0,0E0,0E0],"parents":[2147483647,0,0,1,1,2,2,3,3,7,7,8,8,9,9,11,11,12,12,13,13,14,14,18,18],"right_children":[2,4,6,8,-1,-1,-1,10,12,14,-1,16,18,20,22,-1,-1,-1,24,-1,-1,-1,-1,-1,-1],"split_conditions":[8.8E1,2.2E1,1E1,3.9E1,-1.3682409E-1,-4.982756E-2,1.2687868E-1,1E1,4.9E1,1.3E1,-1.4927335E-1,1.79E2,2.4E1,5.97E2,1.28E2,-1.3830552E-1,6.522356E-2,-1.0326503E-2,3E1,-1.2079294E-1,3.3605214E-2,-3.1836936E-3,9.906204E-2,1.602675E-1,4.5743543E-3],"split_indices":[10103,4858,4829,5004,0,0,0,10223,10217,10267,0,5094,10335,5198,5086,0,0,0,5084,0,0,0,0,0,0],"split_type":[0,0,0,0,0,0,0,0,0,0,0,0,0,0,0,0,0,0,0,0,0,0,0,0,0],"sum_hessian":[1.9323383E1,1.6012846E1,3.3105383E0,1.3930174E1,2.0826719E0,1.7288712E0,1.5816672E0,7.286752E0,6.6434216E0,5.4078875E0,1.878865E0,2.606229E0,4.0371923E0,2.9559608E0,2.4519267E0,1.3994298E0,1.2067994E0,1.0221043E0,3.0150883E0,1.1636099E0,1.7923508E0,1.1104E0,1.3415266E0,1.9617059E0,1.0533824E0],"tree_param":{"num_deleted":"0","num_feature":"10398","num_nodes":"25","size_leaf_vector":"1"}},{"base_weights":[-4.6811543E-2,2.2669496E-2,-1.6967435E-1,1.7584115E-1,-1.7520578E-1,-6.179901E-1,3.4259063E-1,2.2964446E-1,-4.5713376E-2,-2.0901026E-1,-5.5140134E-2,1.3646932E-2,1.3617843E-1,2.855868E-1,-2.3788461E-2,3.3659923E-1,-1.6559852E-2,1.7527558E-2,1.2110875E-1],"categories":[],"categories_nodes":[],"categories_segments":[],"categories_sizes":[],"default_left":[0,0,0,0,0,0,0,0,0,0,0,0,0,0,0,0,0,0,0],"id":41,"left_children":[1,3,5,7,-1,9,11,13,-1,-1,-1,-1,-1,15,-1,17,-1,-1,-1],"loss_changes":[1.7059505E-1,1.3441464E0,1.859259E0,2.3692617E-1,0E0,1.4881849E-2,1.1138442E-1,1.9933403E-1,0E0,0E0,0E0,0E0,0E0,1.7283618E-1,0E0,1.2309593E-1,0E0,0E0,0E0],"parents":[2147483647,0,0,1,1,2,2,3,3,5,5,6,6,7,7,13,13,15,15],"right_children":[2,4,6,8,-1,10,12,14,-1,-1,-1,-1,-1,16,-1,18,-1,-1,-1],"split_conditions":[7.4E1,7.4E1,7.4E1,5.7E1,-1.7520578E-1,1.35E2,2.62E2,2.05E2,-4.5713376E-2,-2.0901026E-1,-5.5140134E-2,1.3646932E-2,1.3617843E-1,5.35E2,-2.3788461E-2,1.2E1,-1.6559852E-2,1.7527558E-2,1.2110875E-1],"split_indices":[10386,5187,5187,10003,0,4996,5190,4963,0,0,0,0,0,10333,0,5069,0,0,0],"split_type":[0,0,0,0,0,0,0,0,0,0,0,0,0,0,0,0,0,0,0],"sum_hessian":[1.8533295E1,1.2359356E1,6.1739397E0,1.0434982E1,1.9243736E0,3.1824167E0,2.991523E0,9.223372E0,1.2116095E0,2.1822195E0,1.0001972E0,1.1994367E0,1.7920865E0,7.873279E0,1.3500936E0,6.85886E0,1.0144188E0,1.6964315E0,5.1624284E0],"tree_param":{"num_deleted":"0","num_feature":"10398","num_nodes":"19","size_leaf_vector":"1"}},{"base_weights":[-5.015345E-2,1.010218E-1,-1.0364403E-1,3.6160827E-1,-1.2951435E-1,-1.9278319E-1,2.1041105E-2,1.5736313E-1,1.7328864E-2,-6.776657E-2,1.967071E-1,1.0519826E-1,-1.7695351E-1,-6.96965E-2,4.0069804E-1,-8.9690186E-2,2.517444E-1,1.5341103E-1,2.0337958E-2,-9.092581E-2,6.307776E-2,-2.238297E-2,1.15071036E-1],"categories":[],"categories_nodes":[],"categories_segments":[],"categories_sizes":[],"default_left":[0,0,0,0,0,0,0,0,0,0,0,0,0,0,0,0,0,0,0,0,0,0,0],"id":42,"left_children":[1,3,5,7,-1,-1,9,-1,-1,11,13,15,-1,-1,17,19,21,-1,-1,-1,-1,-1,-1],"loss_changes":[1.6179487E-1,9.0537804E-1,9.7557914E-1,1.760751E-1,0E0,0E0,2.0981401E-1,0E0,0E0,8.846322E-1,4.856455E-1,2.4223673E-1,0E0,0E0,9.085733E-2,3.2221442E-1,2.2878551E-1,0E0,0E0,0E0,0E0,0E0,0E0],"parents":[2147483647,0,0,1,1,2,2,3,3,6,6,9,9,10,10,11,11,14,14,15,15,16,16],"right_children":[2,4,6,8,-1,-1,10,-1,-1,12,14,16,-1,-1,18,20,22,-1,-1,-1,-1,-1,-1],